tree
version=v4
num_class=1
num_tree_per_iteration=1
label_index=0
max_feature_idx=25
objective=regression
feature_names=ret_1d ret_5d ret_10d ret_20d ret_60d mom_5d mom_10d mom_20d mom_60d vol_5d vol_20d vol_60d atr_14d vol_change ma_5_20_ratio ma_10_50_ratio price_ma20_ratio price_ma50_ratio price_position_20d price_position_60d rsi_14 rsi_14_norm vol_ratio vol_momentum price_vol_corr day_of_week
feature_infos=[-6.9900752154876065:10.080454003985119] [-7.0534494232498552:4.2450245246949656] [-5.2176219167044255:3.9434339077204279] [-3.5935008350968189:4.8751129359779606] [-3.0941620908914476:4.7883961904826178] [-7.0539663788488376:4.2415805311200794] [-5.2101413137085117:3.946119880416338] [-3.5796410308116147:4.8704557183378476] [-3.0903156127435771:4.7853017617604641] [-1.2463775422861474:8.9192347926498954] [-1.2756737658581925:4.9043104649592948] [-1.3417748667353881:3.168449416226844] [-1.3034540488004309:5.3988375535240767] [-2.2983792457934551:3.1351845581140361] [-5.6168998417341731:3.7808096626669045] [-3.4317913340773827:2.6688160609298199] [-5.5285281973700169:3.9480196554251243] [-4.6580349148592273:2.6894997563636878] [-2.1790905341776816:1.3227174139461009] [-2.4289239891009737:1.2431800173776684] [-2.7105061146359977:2.7379177498454172] [-2.7105061146359986:2.7379177498454164] [-1.9976230610799797:6.698380926198773] [-1.721052859078704:8.7043248495027274] [-1.7776113395394657:3.0461974681174349] [-1.4209396192854693:1.4155674468118]
tree_sizes=1496 1480 1269 1321 1512 1709 1677 1609 1503 1330 1340 1280 1432 1374 1680 1389 1651 1652 1240 1570 1483 1506 1712 1532 1396 1393 1504 1584 1728 1579 1607 1394 1338 1524 1570 1270 1545 1708 1414 1544 1496 1415 1556 1491 1554 1367 1647 1261 1514 1330 1557 1460 1411 1402 1529 1611 1250 1468 1409 1434 1282 1258 1368 1411 1340 1549 1450 1692 1444 1223 1587 1621 1267 1620 1365 1450 1342 1444 1326 1500 1187 1350 1460 1648 1414 1251 1571 1353 1521 1362 1677 1632 1596 1581 1472 1475 1565 860 1025 1294 1499 1485 1508 1423 1427 1605 1539 1536 1473 1546 1379 1507 1364 1167 1219 1325 1489 1476 1323 1547 1412 1318 1299 1343 1488 1382 1486 1476 1467 1251 1547 1267 1326 1240 1396 1079 1080 1244 1155 1301 1342 1629 1332 1190 1562 1200 1258 1357 1338 1332 1462 1404 1633 1554 1506 1307 1307 1535 1494 1366 1300 1318 1439 1221 1294 1226 1186 1292 1253 1381 1547 1506 1720 1462 1622 1492 1385 1391 1251 1245 1491 1328 1406 1428 1455 1514 1426 1190 1266 1359 1449 1343 1160 1408 1226 1022 1283 1086 1235 1236 1339 1458 1233 1375 1412 938 941 941 935 869 1262 1469 1326 1346 1488 1456 1385 1241 1385 1202 1419 1580 1408 1549 1326 1471 1352 1137 1231 1552 1284 1219 1313 1086 1176 1070 1244 1083 1090 1157 1305 1651 1152 1491 1443 1211 1192 1134 1205 1139 1294 1358 1144 1140 1092 1568 1389 1250 1229 1391 1233 1059 1217 1209 1198 1085 1092 1078 1156 1372 1167 995 1044 1307 1104 1392 1293 1178 1388 1317 940 1312 1093 1225 1169 1341 1665 1227 1453 1381 1066 1163 1162 1233 996 1007 1007 1224 1013 1126 1389 1102 1399 1400 1245 1225 1377 1084 1105 1139 912 1235 1149 1161 910 1553 1434 1213 1302 1141 767 619 767 697 696 1083 1095 1311 1236 1160 1289 1302 1438 1213 1131 1470 1349 927 1149 1183 1019 1304 844 1241 1141 1119 1106 1238 1132 1128 1097 945 1062 1103 1097 1037 1441 1079 1007 1081 1233 1274 998 1153 1382 1538 1248 1463 1241 1318 1241 1171 1266 1371 1209 1220 914

Tree=0
num_leaves=15
num_cat=0
split_feature=10 14 12 11 5 1 8 4 11 7 1 8 11 11
split_gain=0.0465435 0.00882397 0.00951467 0.0118242 0.00811002 0.00612605 0.00519575 0.00446612 0.00294629 0.00331067 0.00172791 0.00172422 3.03051e-05 3.73932e-05
threshold=1.5207298879189828 -0.46085677284790089 0.037105439507551484 1.1944138616646853 0.57440598923884545 0.24810281910710444 -1.2203615623985484 -0.023207916185827879 0.60378571743372034 0.048446420370466932 0.72473955835725801 0.66880730637018515 -0.24913101475866692 -0.90332176020865151
decision_type=2 2 2 2 2 2 2 2 2 2 2 2 2 2
left_child=1 6 5 4 -4 11 -1 -8 9 -7 -2 12 13 -3
right_child=10 2 3 -5 -6 8 7 -9 -10 -11 -12 -13 -14 -15
leaf_value=0.0033573269352295838 0.0041473999622526625 0.0033575942111980627 0.0028176224857144783 0.0033575942111980627 0.0033575942111980627 0.0033575942111980627 0.0036015066082437049 0.0033575942111980627 0.0033575942111980627 0.0031535735360747261 0.0033719306621118892 0.0034765593609856846 0.0033675566012202852 0.0033420884751788342
leaf_weight=74 67 59 113 59 60 90 187 88 76 261 50 146 118 204
leaf_count=74 67 59 113 59 60 90 187 88 76 261 50 146 118 204
internal_value=0.00336255 0.00332774 0.00328161 0.00310231 0.00297202 0.00334104 0.00344148 0.00351853 0.00324674 0.00320763 0.00394513 0.00338904 0.00335759 0.00334992
internal_weight=1652 1535 1186 232 173 954 349 275 427 351 117 527 381 263
internal_count=1652 1535 1186 232 173 954 349 275 427 351 117 527 381 263
is_linear=0
shrinkage=1


Tree=1
num_leaves=17
num_cat=0
split_feature=11 17 1 20 22 23 11 6 0 11 0 23 23 1 23 1
split_gain=0.0355066 0.0169817 0.015518 0.0111602 0.00845351 0.00674561 0.00739272 0.00223089 0.00180731 0.00178605 0.000921124 0.000839474 0.00115541 0.00067305 0.000974763 0.000298061
threshold=0.91724354707752764 1.04423665048755 0.98053879633341079 -0.66562609274757423 -0.11146833162491725 -0.4639878769975761 -0.52639275210127667 -0.45879938583044094 0.62520486220906213 -0.57684956288507749 0.5594112439085932 -0.66712397594691597 -0.94420394076070235 0.16340201982769162 -0.19609977921401581 -0.72552577330545853
decision_type=2 2 2 2 2 2 2 2 2 2 2 2 2 2 2 2
left_child=3 2 -2 7 5 10 -7 8 9 -1 11 12 -5 15 -15 -6
right_child=1 -3 -4 4 13 6 -8 -9 -10 -11 -12 -13 -14 14 -16 -17
leaf_value=0 0.00062920529322732315 0 0 0 0 0 -0.00045861591616264732 0 0 0.00022573714984292433 0 0 -0.00017518491978176957 0 -9.6882982127441966e-05 4.8553857638122034e-05
leaf_weight=56 145 109 52 52 52 125 153 117 53 134 54 91 89 53 142 175
leaf_count=56 145 109 52 52 52 125 153 117 53 134 54 91 89 53 142 175
internal_value=4.95347e-06 0.000304151 0.000470051 -5.20138e-05 -0.000110636 -0.000186731 -0.000303374 6.68682e-05 0.000121924 0.000165951 -2.06632e-05 -6.3967e-05 -0.00010983 0 -4.8521e-05 2.5288e-05
internal_weight=1652 306 197 1346 986 564 278 360 243 190 286 232 141 422 195 227
internal_count=1652 306 197 1346 986 564 278 360 243 190 286 232 141 422 195 227
is_linear=0
shrinkage=0.03


Tree=2
num_leaves=14
num_cat=0
split_feature=12 11 12 20 0 1 5 1 7 9 24 11 3
split_gain=0.0368311 0.0101003 0.0151732 0.0129778 0.00929799 0.00875806 0.0064703 0.0055387 0.00506107 0.00480976 0.00178206 0.00320597 0.00135375
threshold=0.82410347052734245 0.91724354707752764 0.037105439507551484 -0.69997009100241614 0.13660898131030119 0.18765636257991397 0.98376493704190493 0.2544038118165573 0.12009176728996583 -0.39383361547989543 -0.83391025891253767 -0.75783785882033372 0.40103830431254772
decision_type=2 2 2 2 2 2 2 2 2 2 2 2 2
left_child=1 2 5 -4 -2 10 9 -5 -7 -3 -1 -12 -13
right_child=4 6 3 7 -6 8 -8 -9 -10 -11 11 12 -14
leaf_value=0 0.00067622332791986226 0 0 -0.00060567177281567323 2.2730938051469049e-05 0 0 0 -0.00020170479034270576 0.0003627148291186575 0 0.0001960996992109401 0
leaf_weight=109 86 50 96 102 97 135 50 78 267 105 189 189 99
leaf_count=109 86 50 96 102 97 135 50 78 267 105 189 189 99
internal_value=4.40043e-06 -3.63647e-05 -7.60107e-05 -0.000275169 0.000412586 -5.08973e-06 0.000134684 -0.000425087 -0.000125389 0.000247833 5.18972e-05 8.16517e-05 0.000145038
internal_weight=1652 1469 1264 276 183 988 205 180 402 155 586 477 288
internal_count=1652 1469 1264 276 183 988 205 180 402 155 586 477 288
is_linear=0
shrinkage=0.03


Tree=3
num_leaves=15
num_cat=0
split_feature=12 11 12 21 1 1 5 13 1 7 17 24 11 3
split_gain=0.0350993 0.00946919 0.0144415 0.0123677 0.00861375 0.0081946 0.00618528 0.0049959 0.0146705 0.00480475 0.00243822 0.00170908 0.00305124 0.00123007
threshold=0.82410347052734245 0.91724354707752764 0.037105439507551484 -0.69997009100241681 0.94692470729501299 0.18765636257991397 0.98376493704190493 0.33192232818248796 0.18765636257991397 0.048446420370466932 1.2270007355205619 -0.83391025891253767 -0.75783785882033372 0.40103830431254772
decision_type=2 2 2 2 2 2 2 2 2 2 2 2 2 2
left_child=1 2 5 -4 -2 11 10 8 -5 -7 -3 -1 -13 -14
right_child=4 6 3 7 -6 9 -8 -9 -10 -11 -12 12 13 -15
leaf_value=0 0.00053614745380965072 0.00033873787545599045 0 -0.00089773985521178999 0 0 0 0 0 -0.00019085502406199388 0 0 0.00019023223241482735 0
leaf_weight=109 130 97 96 60 53 121 50 50 70 281 58 189 189 99
leaf_count=109 130 97 96 60 53 121 50 50 70 281 58 189 189 99
internal_value=4.03963e-06 -3.55381e-05 -7.41466e-05 -0.000268466 0.000402718 -4.58009e-06 0.000129124 -0.000414819 -0.000521975 -0.000121375 0.000240486 5.00014e-05 7.93231e-05 0.000141184
internal_weight=1652 1469 1264 276 183 988 205 180 130 402 155 586 477 288
internal_count=1652 1469 1264 276 183 988 205 180 130 402 155 586 477 288
is_linear=0
shrinkage=0.03


Tree=4
num_leaves=17
num_cat=0
split_feature=3 17 25 8 18 22 15 4 24 7 20 8 3 1 5 1
split_gain=0.0198725 0.0154802 0.0122307 0.00706068 0.00629432 0.00366334 0.00278213 0.00360746 0.00349964 0.00314164 0.00126007 0.00211262 0.00147816 0.000797951 0.000768171 0.000151363
threshold=-1.4066826287285792 -1.1552214525359663 1.0000000180025095e-35 -1.2027185224532138 0.51444508703724545 -0.36251077779504165 0.82990034143411362 -0.15388096025979375 0.47770949486172526 0.10848822852063937 -0.67224525294146409 0.18030517472667559 -0.16473784564482172 -1.2253194288699076 0.40704388359607357 0.48864400684662745
decision_type=2 2 2 2 2 2 2 2 2 2 2 2 2 2 2 2
left_child=2 -2 -1 -3 5 10 7 -6 9 -9 -5 12 -12 -7 -15 -8
right_child=1 3 -4 4 6 13 15 8 -10 -11 11 -13 -14 14 -16 -17
leaf_value=0.00055663171674421425 -0.00046686928248369043 0.00024916185789929768 0 0 0 0 2.2227052373989557e-05 0 0 -0.00034305567415095098 -0.00028885100154362825 0 0 0.00012536510411049364 0 -2.9760241123461112e-05
leaf_weight=91 66 96 52 78 80 51 113 86 118 145 53 84 53 333 63 90
leaf_count=91 66 96 52 78 80 51 113 86 118 145 53 84 53 333 63 90
internal_value=3.47655e-06 -1.93054e-05 0.000347641 0 -1.64296e-05 2.97418e-05 -9.23621e-05 -0.000135619 -0.000178584 -0.000248503 -1.9105e-05 -8.0421e-05 -0.000171528 9.25361e-05 0.000107124 0
internal_weight=1652 1509 143 1443 1347 715 632 429 349 231 268 190 106 447 396 203
internal_count=1652 1509 143 1443 1347 715 632 429 349 231 268 190 106 447 396 203
is_linear=0
shrinkage=0.03


Tree=5
num_leaves=20
num_cat=0
split_feature=10 6 22 11 11 11 8 10 6 4 1 12 4 11 3 19 6 11 6
split_gain=0.039979 0.0100341 0.00511226 0.00474411 0.00474819 0.00433405 0.00678662 0.00952659 0.00539032 0.00837868 0.00299063 0.00262729 0.00225294 0.00129584 0.00122439 0.000976032 0.00126316 0.000641255 7.37951e-05
threshold=1.3966747094081393 0.42893631342995769 0.19107389818764514 -0.70899464827840342 0.91724354707752764 1.3962289278492377 -0.85569379542256208 0.14605032386701036 -0.56211673910741289 0.0067712797597618722 0.52376552861111125 -0.49989722687949761 0.43402140344930457 0.10783007438543006 0.40875177154006548 -0.41550308129920843 -0.29684841772695136 -0.35344985272518453 0.25281965338197515
decision_type=2 2 2 2 2 2 2 2 2 2 2 2 2 2 2 2 2 2 2
left_child=1 5 3 -3 11 6 7 -1 9 17 -2 -5 13 15 -14 -10 -17 -8 -18
right_child=10 2 -4 4 -6 -7 8 -9 12 -11 -12 -13 14 -15 -16 16 18 -19 -20
leaf_value=0 0.00074729446990437107 0 0 0 0 0.00025507565202316691 0 -0.0004523119760939356 0 0 0 -0.00039935475090408326 9.1720850666151353e-05 0 0 0 -0.00019492067064898539 0.00037769246809776276 0
leaf_weight=68 64 69 119 50 57 59 55 71 93 85 52 170 140 51 108 70 140 90 51
leaf_count=68 64 69 119 50 57 59 55 71 93 85 52 170 140 51 108 70 140 90 51
internal_value=0 -4.14158e-05 -0.000158425 -0.000216788 -0.000272156 0 -5.35898e-06 -0.000208321 9.71278e-06 0.000144186 0.000534865 -0.000335554 -1.47723e-05 -7.17961e-05 1.79462e-05 -9.58442e-05 -0.000125747 0.000291139 -0.000165918
internal_weight=1662 1546 465 346 277 1081 1022 139 883 230 116 220 653 405 248 354 261 145 191
internal_count=1662 1546 465 346 277 1081 1022 139 883 230 116 220 653 405 248 354 261 145 191
is_linear=0
shrinkage=0.03


Tree=6
num_leaves=19
num_cat=0
split_feature=12 0 17 11 18 12 17 13 4 13 9 11 13 6 2 18 5 1
split_gain=0.0325987 0.0104589 0.0102368 0.00716375 0.0086964 0.0104502 0.00452204 0.00102373 0.000513012 0.000527141 0.000465472 0.00241266 0.00164924 0.00322184 0.000762175 0.000945413 2.82131e-06 1.89872e-07
threshold=0.82410347052734245 0.71458839070784308 -1.3132951341327819 0.60378571743372034 0.36183411118570746 -0.3817103776481558 1.1597525066449517 0.40207443938879311 0.53052377372989057 0.19894552458604545 -0.34627762707154547 -0.75783785882033372 0.15990683631444619 -0.56211673910741289 -0.64137374622932763 -0.13849360530601099 -0.65307188897420387 0.49988438024743659
decision_type=2 2 2 2 2 2 2 2 2 2 2 2 2 2 2 2 2 2
left_child=2 -2 -1 4 10 8 -5 -7 9 -6 11 -4 13 -12 16 -16 -14 -10
right_child=1 -3 3 6 5 7 -8 -9 17 -11 12 -13 14 -15 15 -17 -18 -19
leaf_value=-0.00046720452367439181 0.00052741858137168862 0 0 0.00025619040748857164 -8.8535853099978089e-05 -0.00037808119322717086 0 0 1.2111238949275635e-06 0 0 0.00014482490688789567 0 -0.00021401571125814238 0.0001152209662672436 0 -7.0908888258122933e-06 0
leaf_weight=54 127 53 115 109 119 154 93 51 116 59 51 123 50 95 116 63 50 64
leaf_count=54 127 53 115 109 119 154 93 51 116 59 51 123 50 95 116 63 50 64
internal_value=0 0.000379924 -4.70735e-05 -2.05277e-05 -5.66225e-05 -0.000144457 0.000124068 -0.000320915 -1.26536e-06 -5.08904e-05 0 4.19106e-05 0 -0.000100324 5.92444e-06 6.22587e-05 0 0
internal_weight=1662 180 1482 1428 1226 563 202 205 358 178 663 238 425 146 279 179 100 180
internal_count=1662 180 1482 1428 1226 563 202 205 358 178 663 238 425 146 279 179 100 180
is_linear=0
shrinkage=0.03


Tree=7
num_leaves=19
num_cat=0
split_feature=10 0 6 15 24 11 11 11 24 6 8 0 15 13 6 5 2 13
split_gain=0.0366742 0.0144547 0.00928202 0.00602567 0.00928751 0.00855293 0.00435008 0.00412829 0.00338182 0.00152944 0.0025961 0.00255902 0.00244224 0.00149826 0.000143564 0.000503658 0.000495059 8.9849e-05
threshold=1.3966747094081393 0.35836414274715084 0.42893631342995769 -1.0812474249384649 -0.09065650062858778 0.10783007438543006 -0.70899464827840342 0.91724354707752764 0.68030057689824697 -0.6749886115399174 0.20759291144150416 -0.70147153675450857 -0.10282298172567612 0.43588690474769476 -0.24249392675552597 0.41343727571157157 0.25016734938134744 0.11109568027890225
decision_type=2 2 2 2 2 2 2 2 2 2 2 2 2 2 2 2 2 2
left_child=2 -2 3 4 -1 9 -4 8 17 12 11 -11 -5 -13 -12 16 -16 -8
right_child=1 -3 6 5 -6 -7 7 -9 -10 10 14 13 -14 -15 15 -17 -18 -19
leaf_value=0 0.00080962706444770991 0 0 0.00017765552745866613 -0.00049560758751733406 0.00022494457959815228 -0.00040314161545983602 0 0 0 0 -0.00018896809738641284 0 0 8.808452830395117e-05 0 0 0
leaf_weight=75 66 50 100 96 51 174 132 90 90 52 78 182 66 59 132 64 52 53
leaf_count=75 66 50 100 96 51 174 132 90 90 52 78 182 66 59 132 64 52 53
internal_value=0 0.000512348 -3.96025e-05 0 -0.000184177 3.4421e-05 -0.000152172 -0.000200508 -0.000258502 0 -2.92173e-05 -9.8806e-05 7.22246e-05 -0.000146292 0 2.28024e-05 5.61888e-05 -0.000340077
internal_weight=1662 116 1546 1081 126 955 465 365 275 781 619 293 162 241 326 248 184 185
internal_count=1662 116 1546 1081 126 955 465 365 275 781 619 293 162 241 326 248 184 185
is_linear=0
shrinkage=0.03


Tree=8
num_leaves=17
num_cat=0
split_feature=10 0 20 17 6 13 22 6 10 10 24 8 2 13 22 5
split_gain=0.0347558 0.0134141 0.00940778 0.0149142 0.00550172 0.00448494 0.00371602 0.00283484 0.00238942 0.00209134 0.000881337 0.000281756 0.00172301 0.000773034 0.000445356 0.000175056
threshold=1.3966747094081393 0.35836414274715084 -0.67224525294146409 -0.87378480409319115 0.42893631342995769 1.0161774585960373 0.19107389818764514 -0.22434677128895933 -0.39533158610579922 -0.18391877705945531 0.26433287181565229 0.29933724355326191 -0.34325738249226295 0.45513608236235076 -0.46120686999810651 0.31748648311040223
decision_type=2 2 2 2 2 2 2 2 2 2 2 2 2 2 2 2
left_child=2 -2 5 -4 11 7 8 9 -6 -1 -10 12 -5 -14 -13 -16
right_child=1 -3 3 4 6 -7 -8 -9 10 -11 -12 14 13 -15 15 -17
leaf_value=0 0.00078552088560186371 0 -0.00059455019874951316 4.5862466448864738e-06 0 0 0 0 -0.00032289344780059217 0.00030529962326011933 0 0 -0.00011130651593046085 0 6.9811829314132937e-05 0
leaf_weight=108 66 50 55 111 133 84 114 58 132 112 62 111 185 62 155 64
leaf_count=108 66 50 55 111 133 84 114 58 132 112 62 111 185 62 155 64
internal_value=0 0.000498588 -3.87284e-05 -8.60498e-05 -4.77454e-05 7.45723e-05 -0.000130565 0.000147417 -0.00018219 0.000197532 -0.000258742 0 -1.22835e-05 -8.04647e-05 2.45682e-05 5.22962e-05
internal_weight=1662 116 1546 1184 1129 362 441 278 327 220 194 688 358 247 330 219
internal_count=1662 116 1546 1184 1129 362 441 278 327 220 194 688 358 247 330 219
is_linear=0
shrinkage=0.03


Tree=9
num_leaves=15
num_cat=0
split_feature=20 19 8 0 8 22 14 6 22 15 24 14 16 14
split_gain=0.0159966 0.00463072 0.00394232 0.00411434 0.00325765 0.00381316 0.00210185 0.0018401 0.000514191 0.00103721 0.000259952 0.00137415 0.000839118 0.000413609
threshold=-0.67224525294146409 -1.2100607107445498 0.040615751626393408 0.36279255882157085 -1.1539736114422765 -0.30863906452836154 -0.47746757940559331 -0.33464963578680834 -1.0090063678512851 0.71947218057236839 -0.30052960962733039 0.17316053847832444 1.2375268796491017 -0.066698763877881748
decision_type=2 2 2 2 2 2 2 2 2 2 2 2 2 2
left_child=2 -2 3 6 -3 7 -1 -6 -9 -10 11 -7 13 -12
right_child=1 4 -4 -5 5 10 -8 8 9 -11 12 -13 -14 -15
leaf_value=0.0003223905856210783 -0.00032514833329090229 0.00011860246742811783 0 0 0 0 0 0 -0.00019690222001152348 0 0 -0.00012789792758483316 0 6.066467529721304e-05
leaf_weight=189 67 71 97 89 76 89 51 66 239 101 69 86 51 321
leaf_count=189 67 71 97 89 76 89 51 66 239 101 69 86 51 321
internal_value=0 -5.57546e-05 0.000157301 0.000206872 -2.73562e-05 -5.0499e-05 0.000272084 -0.00011366 -0.000139312 -0.000156617 0 -3.18674e-05 1.12352e-05 4.55704e-05
internal_weight=1662 1236 426 329 1169 1098 240 482 406 340 616 175 441 390
internal_count=1662 1236 426 329 1169 1098 240 482 406 340 616 175 441 390
is_linear=0
shrinkage=0.03


Tree=10
num_leaves=15
num_cat=0
split_feature=10 0 21 11 12 9 11 4 22 9 4 10 14 22
split_gain=0.0402975 0.0136678 0.00823857 0.011688 0.00892504 0.00476727 0.00373958 0.00386328 0.00124043 0.00118758 0.000874932 0.000745285 0.000656462 1.61988e-05
threshold=1.3966747094081393 0.35836414274715084 -0.67224525294146475 1.0527076920093712 -0.24120518907898833 0.53400566496495994 -0.57684956288507749 -1.1350737511195332 0.38382895255594257 -0.37995648033486007 0.48420987011055916 -0.48418998274001485 0.2955213565787993 -0.40256540291072923
decision_type=2 2 2 2 2 2 2 2 2 2 2 2 2 2
left_child=2 -2 6 4 10 8 -1 -8 -6 -5 11 12 -4 -12
right_child=1 -3 3 9 5 -7 7 -9 -10 -11 13 -13 -14 -15
leaf_value=0 0.00086199242275121599 0 -0.00012207599096354809 0 -0.00032752915943500829 0 0 0.00022791367474931854 0 0.00017194326875637038 0 0 0 9.1403930526050631e-06
leaf_weight=129 64 50 154 54 250 60 62 181 53 118 93 143 53 174
leaf_count=129 64 50 154 54 250 60 62 181 53 118 93 143 53 174
internal_value=8.88028e-06 0.000557791 -2.25101e-05 -6.97178e-05 -0.000118147 -0.000243007 8.33103e-05 0.000156331 -0.000291314 0.0001188 -2.02587e-05 -5.44947e-05 -9.08229e-05 0
internal_weight=1638 114 1524 1152 980 363 372 243 303 172 617 350 207 267
internal_count=1638 114 1524 1152 980 363 372 243 303 172 617 350 207 267
is_linear=0
shrinkage=0.03


Tree=11
num_leaves=14
num_cat=0
split_feature=12 11 20 12 22 19 18 8 11 11 8 23 22
split_gain=0.0387268 0.0142245 0.0077805 0.0100127 0.00503309 0.00370202 0.00283449 0.00163 0.00319688 0.0018582 0.000982331 0.00093001 2.79465e-06
threshold=1.0239180210437442 1.0527076920093712 -0.67224525294146409 -0.24120518907898833 0.58966101362011025 -1.1640770589459397 1.1266483758767409 -0.90665108489100821 -0.73366816948510005 -0.1377158458458583 0.5534730066303617 -0.2793945077362428 -0.40256540291072923
decision_type=2 2 2 2 2 2 2 2 2 2 2 2 2
left_child=1 2 7 10 -5 -2 -3 -1 -9 -10 11 -4 -12
right_child=5 6 3 4 -6 -7 -8 8 9 -11 12 -13 -14
leaf_value=0 0.00071076025273096718 0.00026521891707958714 0 -0.00030407619523833203 0 7.025724983931669e-05 0 0 0.00023853948359854171 0 0 -9.9975743725219408e-05 3.9835531719554844e-06
leaf_weight=66 72 136 182 294 54 83 56 95 107 58 82 195 158
leaf_count=66 72 136 182 294 54 83 56 95 107 58 82 195 158
internal_value=8.55771e-06 -2.92381e-05 -7.37246e-05 -0.000120081 -0.00025522 0.000465573 0.000191379 1.75266e-05 7.7566e-05 0.000163875 -1.94227e-05 -5.43972e-05 0
internal_weight=1638 1483 1291 965 348 155 192 326 260 165 617 377 240
internal_count=1638 1483 1291 965 348 155 192 326 260 165 617 377 240
is_linear=0
shrinkage=0.03


Tree=12
num_leaves=16
num_cat=0
split_feature=10 0 21 11 11 13 9 11 4 24 9 10 8 8 8
split_gain=0.0368107 0.0123944 0.00717585 0.0104109 0.00615318 0.00467011 0.00660704 0.00337027 0.00370557 0.00167489 0.00110405 0.00057522 0.00158149 1.63031e-05 1.34285e-05
threshold=1.3966747094081393 0.35836414274715084 -0.67224525294146475 1.0527076920093712 -0.62604739775649043 0.57937767445133115 -0.31008661363147255 -0.57684956288507749 -1.1350737511195332 -0.76474984061353979 -0.37995648033486007 -0.64847332376908084 0.5534730066303617 0.79280351384427827 0.029093537170804762
decision_type=2 2 2 2 2 2 2 2 2 2 2 2 2 2 2
left_child=2 -2 7 4 11 6 9 -1 -9 -6 -5 12 -4 -13 -11
right_child=1 -3 3 10 5 -7 -8 8 -10 14 -12 13 -14 -15 -16
leaf_value=0 0.00082323872543828085 0 -0.00014182536001739436 0 -0.00017859314284642821 0 -0.00036778923958088246 0 0.00021684098658166355 0 0.00016101456392420856 8.5975652515433114e-06 0 0 1.0458141935639486e-05
leaf_weight=129 64 50 96 54 56 117 204 62 181 71 118 198 78 50 110
leaf_count=129 64 50 96 54 56 117 204 62 181 71 118 198 78 50 110
internal_value=8.36848e-06 0.000533245 -2.12167e-05 -6.57256e-05 -0.000111866 -0.000178564 -0.000223282 7.62524e-05 0.000146122 -3.5225e-05 0.00010977 0 -5.44679e-05 0 0
internal_weight=1638 114 1524 1152 980 558 441 372 243 237 172 422 174 248 181
internal_count=1638 114 1524 1152 980 558 441 372 243 237 172 422 174 248 181
is_linear=0
shrinkage=0.03


Tree=13
num_leaves=15
num_cat=0
split_feature=12 11 20 12 13 19 18 22 14 11 8 10 13 22
split_gain=0.0355436 0.0128857 0.00683807 0.00901438 0.00743104 0.00297714 0.00262082 0.00141107 0.00250788 0.00355447 0.000884475 0.00126741 9.05097e-05 3.26331e-06
threshold=1.0239180210437442 1.0527076920093712 -0.67224525294146409 -0.24120518907898833 0.56527690115466722 -1.1640770589459397 1.1266483758767409 0.61985936507922978 -0.43219179706637045 -0.53417638894776387 0.5534730066303617 -0.64847332376908084 0.9253942075239161 -0.40256540291072923
decision_type=2 2 2 2 2 2 2 2 2 2 2 2 2 2
left_child=1 2 7 10 -5 -2 -3 8 9 -1 11 -4 -9 -12
right_child=5 6 3 4 -6 -7 -8 12 -10 -11 13 -13 -14 -15
leaf_value=0 0.00067779566075026594 0.00025220053695802861 -0.00013306427117267919 -0.00032033918240997325 0 6.2765717317495211e-05 0 0 0 0.00025832947144018752 0 0 -3.8660770739266354e-05 4.3046295280018904e-06
leaf_weight=60 72 136 119 264 84 83 56 50 61 101 82 258 54 158
leaf_count=60 72 136 119 264 84 83 56 50 61 101 82 258 54 158
internal_value=8.09122e-06 -2.77207e-05 -7.04706e-05 -0.000113877 -0.000242265 0.000446181 0.000181242 1.20533e-05 7.69473e-05 0.000148772 -1.70343e-05 -5.08265e-05 0 0
internal_weight=1638 1483 1291 965 348 155 192 326 222 161 617 377 104 240
internal_count=1638 1483 1291 965 348 155 192 326 222 161 617 377 104 240
is_linear=0
shrinkage=0.03


Tree=14
num_leaves=19
num_cat=0
split_feature=12 1 17 3 4 24 6 10 8 17 15 7 6 24 12 18 8 2
split_gain=0.0338871 0.00476196 0.00411706 0.00534761 0.00464344 0.00464353 0.0128439 0.00303805 0.00161457 0.00154743 0.0014777 0.00123856 0.00075205 0.000249915 0.000128549 8.59674e-05 0.000538612 0.000145798
threshold=1.0239180210437442 0.90012038996298827 -1.1280819559885391 -1.4066826287285792 -0.057759250386802491 -0.89997478533247277 0.34107375944184587 0.023034995300292072 0.43353878145064734 0.57158899266212426 1.0000000180025095e-35 0.41963205414103433 -0.2596788843147213 -0.26398115321496052 -0.27558230907401987 -0.95835729654194446 -0.27647784664411512 0.19734745704482273
decision_type=2 2 2 2 2 2 2 2 2 2 2 2 2 2 2 2 2 2
left_child=2 -2 3 -1 7 6 -6 15 9 -7 13 12 -10 -9 -13 -4 17 -17
right_child=1 -3 4 -5 5 8 -8 10 11 -11 -12 14 -14 -15 -16 16 -18 -19
leaf_value=0 0.00056613144471687464 0 2.6396054104457845e-05 -0.00043563745217397806 0 -0.0001105486090830376 -0.00060137955988250156 0.00033608097263744898 0 0 0 0 0.0001162299298023376 0 -3.8888859151698208e-05 -8.3594308121295608e-05 0 0
leaf_weight=50 105 50 107 50 68 233 50 52 50 73 63 186 133 51 76 88 100 53
leaf_count=50 105 50 107 50 68 233 50 52 50 73 63 186 133 51 76 88 100 53
internal_value=7.86072e-06 0.000435761 -2.68831e-05 -0.000217883 -2.15668e-06 -5.40986e-05 -0.000237855 5.64722e-05 -5.12693e-06 -6.90394e-05 0.0001621 5.18003e-06 7.83571e-05 0.000234778 0 0 -3.198e-06 -5.86793e-05
internal_weight=1638 155 1483 100 1383 869 118 514 751 306 166 445 183 103 262 348 241 141
internal_count=1638 155 1483 100 1383 869 118 514 751 306 166 445 183 103 262 348 241 141
is_linear=0
shrinkage=0.03


Tree=15
num_leaves=16
num_cat=0
split_feature=11 1 9 14 11 15 18 2 9 13 10 1 15 7 15
split_gain=0.0221322 0.0122671 0.0146336 0.00883841 0.0120473 0.0115204 0.00283089 0.00240082 0.00255405 0.00179382 0.00127393 5.5609e-05 1.86957e-05 0.000120282 0.000109344
threshold=0.91724354707752764 0.79491335312010092 -0.39383361547989543 -0.46085677284790089 -0.52266934905624962 0.58009371023667777 -1.4216400319708662 1.0815746358521363 -0.55229022905611436 0.51017662157326427 -0.015852580952685307 -0.42940175039656087 0.74689164485969972 0.0064243012942629763 0.4632802950348302
decision_type=2 2 2 2 2 2 2 2 2 2 2 2 2 2 2
left_child=3 2 -2 6 12 7 10 8 -6 -10 -1 -8 13 -5 -15
right_child=1 -3 -4 4 5 -7 11 -9 9 -11 -12 -13 -14 14 -16
leaf_value=0 0 0 0.00055173376629036796 0 0 0 -3.0303689856253086e-05 0 -0.00043806476966542146 0 0.00023287372128515127 0 -1.205891328440471e-05 3.6576275508319599e-05 0
leaf_weight=82 51 94 132 174 54 126 54 56 198 68 85 129 115 154 86
leaf_count=82 51 94 132 174 54 126 54 56 198 68 85 129 115 154 86
internal_value=0 0.000241047 0.000384751 -5.24139e-05 -0.000102359 -0.000207569 5.18515e-05 -0.00029162 -0.000326563 -0.00036997 0.000144349 0 0 2.70811e-07 2.1219e-05
internal_weight=1658 277 183 1381 1031 502 350 376 320 266 167 183 529 414 240
internal_count=1658 277 183 1381 1031 502 350 376 320 266 167 183 529 414 240
is_linear=0
shrinkage=0.03


Tree=16
num_leaves=19
num_cat=0
split_feature=11 1 9 14 12 13 4 9 0 4 4 11 23 24 7 4 23 13
split_gain=0.0207592 0.0115792 0.013834 0.00844206 0.0144205 0.00449505 0.00688703 0.00427674 0.00356089 0.00136381 0.000655368 0.000600909 0.000604329 0.000441344 0.00129795 0.000392215 0.000379487 0.000229853
threshold=0.91724354707752764 0.79491335312010092 -0.39383361547989543 -0.46085677284790089 -0.24120518907898833 -0.54304520981926918 -0.31881338669377141 0.25692403950638337 -0.33735046866174406 -0.85155520145064878 0.25274454516049177 -0.57684956288507749 -0.22551378661981727 -0.55473926205491597 0.40938253972583022 -0.057759250386802491 -0.23928492129864271 0.80843693612095091
decision_type=2 2 2 2 2 2 2 2 2 2 2 2 2 2 2 2 2 2
left_child=3 2 -2 8 10 -6 -7 16 17 -10 15 -11 -13 -12 -15 -5 -8 -1
right_child=1 -3 -4 4 5 6 7 -9 9 11 13 12 -14 14 -16 -17 -18 -19
leaf_value=0.00024692075698577026 0 0 0.00053524421724899368 0 0 -0.0006870177171402061 0 0 -0.00014490038843989068 0 0 0.00014641221211766215 0 0.00011294868701186618 0 -8.3898110141678942e-05 -0.00034393624488783303 0
leaf_weight=70 51 94 132 167 94 63 61 79 55 64 67 53 56 123 180 132 65 52
leaf_count=70 51 94 132 167 94 63 61 79 55 64 67 53 56 123 180 132 65 52
internal_value=0 0.000233173 0.000372844 -5.10169e-05 -9.99603e-05 -0.000253447 -0.000319046 -0.000131573 5.02974e-05 0 0 1.8925e-05 7.42056e-05 5.23969e-06 3.66371e-05 -4.39935e-05 -0.000241971 0.000182757
internal_weight=1658 277 183 1381 1031 362 268 205 350 228 669 173 109 370 303 299 126 122
internal_count=1658 277 183 1381 1031 362 268 205 350 228 669 173 109 370 303 299 126 122
is_linear=0
shrinkage=0.03


Tree=17
num_leaves=19
num_cat=0
split_feature=10 1 17 3 18 11 1 11 14 4 11 15 11 24 3 11 11 17
split_gain=0.0199605 0.00819948 0.00554138 0.0110277 0.00307183 0.00223112 0.00242948 0.00158099 0.00120847 0.00481607 0.00375855 0.00227003 0.00107802 0.000786003 0.00162114 0.000631346 0.000543763 0.000167779
threshold=1.3966747094081393 0.77451261684673323 -1.2193950874560404 -1.5364272240460786 1.0608591053966914 0.10783007438543006 0.55628749378503228 1.4155466140430808 -0.46085677284790089 0.1319475345181195 -0.52266934905624962 -0.28864325871966751 -0.84689568696377804 -0.57099600680478757 0.41778151390879453 -0.2585332021610996 -0.84045892743492445 -0.31777831911662208
decision_type=2 2 2 2 2 2 2 2 2 2 2 2 2 2 2 2 2 2
left_child=2 -2 3 -1 5 8 17 12 11 10 -10 -4 -6 -11 16 -12 -15 -7
right_child=1 -3 4 -5 7 6 -8 -9 9 13 15 -13 -14 14 -16 -17 -18 -19
leaf_value=0 0.00064368190992947509 0 0.00015059777334184817 -0.00054865332183624631 0 0 0 0 0 0 -0.00035411275706077313 0 -0.00017593308329122846 0 0 0 0.00014670265774404713 0.00017645322938956772
leaf_weight=61 57 50 102 54 52 55 50 50 167 73 72 107 166 69 139 71 123 140
leaf_count=61 57 50 102 54 52 55 50 50 167 73 72 107 166 69 139 71 123 140
internal_value=0 0.000391113 -3.13027e-05 -0.000236875 -4.32099e-06 5.14989e-06 9.10906e-05 -0.000101396 -1.45653e-06 -3.3627e-05 -0.000128666 3.66655e-05 -0.000138369 2.28477e-06 4.62635e-05 -0.000243708 0.000106137 0.000146983
internal_weight=1658 107 1551 115 1436 1168 245 268 923 714 310 209 218 404 331 143 192 195
internal_count=1658 107 1551 115 1436 1168 245 268 923 714 310 209 218 404 331 143 192 195
is_linear=0
shrinkage=0.03


Tree=18
num_leaves=14
num_cat=0
split_feature=12 0 17 5 19 12 1 17 4 20 0 3 19
split_gain=0.0197899 0.00913899 0.00884262 0.00217192 0.00118244 0.00112835 0.0016386 0.00178569 0.000969569 0.00114117 0.000795568 0.000130314 0.000482363
threshold=0.82410347052734245 0.15021018060020377 -1.2193950874560404 -0.25868824249732753 -0.072595530414670609 0.39218530371067944 -0.33860026360738837 -0.23100584264248478 0.94652765547780116 0.28643435398306433 0.70481668516926399 -0.59197229397775208 -0.6622564252592954
decision_type=2 2 2 2 2 2 2 2 2 2 2 2 2
left_child=2 -2 -1 4 11 6 -5 -8 9 -9 -6 -4 -13
right_child=1 -3 3 5 10 -7 7 8 -10 -11 -12 12 -14
leaf_value=-0.00037523099340146758 0.0005207654449556554 0 0 0 0.00011263799889622112 0 0 0 0 -0.00015816762805969116 0 0 -8.9720493729776926e-05
leaf_weight=71 87 85 101 95 162 77 96 228 169 314 50 55 68
leaf_count=71 87 85 101 95 162 77 96 228 169 314 50 55 68
internal_value=0 0.000299803 -3.93889e-05 -1.18139e-05 2.53942e-05 -4.37031e-05 -5.65521e-05 -7.34894e-05 -9.15869e-05 -0.000112293 7.95776e-05 0 -3.08165e-05
internal_weight=1658 172 1486 1415 436 979 902 807 711 542 212 224 123
internal_count=1658 172 1486 1415 436 979 902 807 711 542 212 224 123
is_linear=0
shrinkage=0.03


Tree=19
num_leaves=18
num_cat=0
split_feature=10 1 4 9 7 2 10 22 10 4 4 6 6 7 0 10 7
split_gain=0.0182487 0.00744956 0.00507803 0.0102549 0.0101475 0.00347138 0.00303407 0.00156875 0.00233799 0.00132817 0.000521586 0.00154003 0.00149498 0.000997029 0.000181854 0.000153304 6.25705e-06
threshold=1.3966747094081393 0.77451261684673323 -0.78399385626968854 1.0000000180025095e-35 -0.77839716325698072 0.15153126659502383 0.18974056372722586 0.41210392707729088 -0.33200874399232144 -0.12011089897302756 0.30532050871143962 -0.5777349635254333 -0.24249392675552597 0.19303252778842681 -0.42812661425005311 -0.40236703808002727 0.092291780786515162
decision_type=2 2 2 2 2 2 2 2 2 2 2 2 2 2 2 2 2
left_child=2 -2 3 -1 -5 6 10 8 16 -10 11 15 -12 14 -13 -4 -7
right_child=1 -3 5 4 -6 7 -8 -9 9 -11 12 13 -14 -15 -16 -17 -18
leaf_value=0 0.00061484056701073824 0 0 -0.00052132451158880602 0 0 0.00020534920640352924 0 0 -0.00019194597146268135 0 0 0.00011688323548988368 0 -0.00013766724739893454 5.6359078262449432e-05 -5.2347996267473088e-06
leaf_weight=84 57 50 59 89 54 55 88 121 52 185 75 61 132 100 125 66 205
leaf_count=84 57 50 59 89 54 55 88 121 52 185 75 61 132 100 125 66 205
internal_value=0 0.000373943 -2.99509e-05 -0.000161885 -0.000325367 0 3.76453e-05 -5.85877e-05 -8.42929e-05 -0.000154089 0 -3.39369e-06 4.73229e-05 -6.78134e-05 -0.000108976 2.41597e-05 0
internal_weight=1658 107 1551 227 143 1324 706 618 497 237 618 411 207 286 186 125 260
internal_count=1658 107 1551 227 143 1324 706 618 497 237 618 411 207 286 186 125 260
is_linear=0
shrinkage=0.03


Tree=20
num_leaves=17
num_cat=0
split_feature=10 6 10 3 24 13 16 9 7 16 4 22 4 3 5 4
split_gain=0.0102139 0.0048683 0.00257288 0.00407582 0.00243359 0.00493945 0.00275901 0.0011369 0.00454748 0.000930157 0.00114251 0.000271604 6.6833e-05 1.73378e-05 0.000142051 0.000267431
threshold=1.5207298879189828 0.19021610648093798 -0.12963605095424555 1.2676691012183665 -0.35892452468110475 0.75048593926336826 0.13869626201517879 -0.059444763821554884 -0.44429953116605508 -0.36981816108269228 -0.078284710101577656 0.020633908100837837 -0.42987110471399542 0.077307168976565407 0.12806647151677006 1.4401249586516942
decision_type=2 2 2 2 2 2 2 2 2 2 2 2 2 2 2 2
left_child=1 4 13 11 5 6 -1 9 -9 10 -6 -4 -7 -3 -15 -16
right_child=-2 2 3 -5 7 12 -8 8 -10 -11 -12 -13 -14 14 15 -17
leaf_value=0.00022323545116486817 0.000295529814163373 0 -0.00025886108390367094 0 0.00018492563083545181 -2.9004386791444897e-05 0 -0.00028555983502883461 0 0 0 0 0 0 -4.5142755113787263e-05 0
leaf_weight=199 105 80 146 52 57 71 63 61 116 226 50 62 54 87 188 55
leaf_count=199 105 80 146 52 57 71 63 61 116 226 50 62 54 87 188 55
internal_value=5.56347e-06 -4.38501e-06 -7.31578e-05 -0.000150548 3.02828e-05 8.81828e-05 0.000168566 0 -7.20818e-05 1.73987e-05 9.34156e-05 -0.000214268 0 0 -6.87121e-06 -2.42717e-05
internal_weight=1672 1567 670 260 897 387 262 510 177 333 107 208 125 410 330 243
internal_count=1672 1567 670 260 897 387 262 510 177 333 107 208 125 410 330 243
is_linear=0
shrinkage=0.03


Tree=21
num_leaves=17
num_cat=0
split_feature=11 21 12 23 1 9 15 18 14 9 11 4 11 9 4 7
split_gain=0.0157764 0.00891872 0.00844912 0.00922249 0.00705981 0.00694912 0.00228434 0.00217853 0.00197885 0.000958494 0.00183787 0.000886001 0.000691139 0.000652659 0.00063403 0.000160487
threshold=0.91724354707752764 -0.71672417652389375 0.0075617757767334481 -0.5400955396062882 0.98053879633341079 -0.39383361547989543 -0.28017819821222029 0.51444508703724545 -0.43219179706637045 0.69342226725108713 -0.53417638894776387 0.94652765547780116 -0.76309718973952789 -0.20337926411937321 -0.044539382000451495 0.32523185194141829
decision_type=2 2 2 2 2 2 2 2 2 2 2 2 2 2 2 2
left_child=1 8 7 -4 5 -2 -5 12 9 10 -1 14 -3 -14 -9 -16
right_child=4 2 3 6 -6 -7 -8 11 -10 -11 -12 -13 13 -15 15 -17
leaf_value=0 0 0 0 -0.00067895128495100595 0 0.00040989901564567098 -8.1945222076167584e-05 0 0 0 0.0002282821380161284 0 9.7286305164661922e-05 0 0 -0.00015951318846125484
leaf_weight=74 59 134 83 51 79 153 100 66 82 58 130 123 133 103 105 139
leaf_count=74 59 134 83 51 79 153 100 66 82 58 130 123 133 103 105 139
internal_value=5.20049e-06 -2.77177e-05 -7.96691e-05 -0.000244853 0.000212658 0.00030321 -0.000384168 -1.27428e-05 8.52389e-05 0.00012775 0.000158641 -6.85496e-05 1.20848e-05 5.34689e-05 -9.55438e-05 -0.000118011
internal_weight=1672 1381 1037 234 291 212 151 803 344 262 204 433 370 236 310 244
internal_count=1672 1381 1037 234 291 212 151 803 344 262 204 433 370 236 310 244
is_linear=0
shrinkage=0.03


Tree=22
num_leaves=20
num_cat=0
split_feature=11 20 9 17 17 13 13 18 14 22 11 22 11 4 9 11 4 4 11
split_gain=0.0148728 0.00851976 0.00506196 0.0107201 0.00504426 0.00677549 0.00252847 0.00230274 0.00202715 0.00147617 0.00124551 0.00104717 0.00105208 0.00102787 0.00204902 0.00135863 0.000858943 0.00151706 0.000579769
threshold=0.91724354707752764 -0.71672417652389309 -0.059444763821554884 -0.55955150432579359 1.079673148364009 0.67998766477459072 1.1395586177384505 0.57754327737138478 -0.43219179706637045 -0.52133185993128739 -0.75783785882033372 0.46022892491853279 -0.016883594543914433 0.90517061795486142 -0.2482147447017983 -0.45985090842485171 -1.153559957138478 -0.023207916185827879 -0.57684956288507749
decision_type=2 2 2 2 2 2 2 2 2 2 2 2 2 2 2 2 2 2 2
left_child=1 6 7 -4 5 -2 8 9 16 -3 -11 12 18 14 15 -9 -1 -18 -5
right_child=4 2 3 11 -6 -7 -8 13 -10 10 -12 -13 -14 -15 -16 -17 17 -19 -20
leaf_value=0 0.00040779693708637398 0 -0.00058541202469943802 0 0 0 0 0 0 0 0.00014435165593644649 0 0 0 0 -0.00027744482037040492 0.00029685534628627532 0 -0.00015872212392247244
leaf_weight=50 138 118 58 53 103 50 79 147 67 77 124 60 52 108 50 77 97 51 113
leaf_count=50 138 118 58 53 103 50 79 147 67 77 124 60 52 108 50 77 97 51 113
internal_value=4.47695e-06 -2.72317e-05 -7.8164e-05 -0.000179553 0.000206203 0.000299729 8.26546e-05 -8.09037e-06 0.000132044 2.12844e-05 8.55082e-05 -4.01189e-05 -7.97797e-05 -7.18321e-05 -0.000102762 -0.000145349 0.00018031 0.0002206 -0.000118488
internal_weight=1672 1381 1037 336 291 188 344 701 265 319 201 278 218 382 274 224 198 148 166
internal_count=1672 1381 1037 336 291 188 344 701 265 319 201 278 218 382 274 224 198 148 166
is_linear=0
shrinkage=0.03


Tree=23
num_leaves=17
num_cat=0
split_feature=12 9 17 13 4 2 4 4 16 15 12 22 14 24 20 4
split_gain=0.0127893 0.00389822 0.00687476 0.00378241 0.00342493 0.00311696 0.00333091 0.0013046 0.000983623 0.000873695 0.00104353 0.000834242 0.000508151 0.000262883 2.09101e-06 3.00582e-06
threshold=0.75350374920186536 1.0000000180025095e-35 -1.1552214525359663 1.0161774585960373 -0.057759250386802491 0.37374334376701573 0.90517061795486142 0.32214513389443666 0.045485782796439084 0.46877062079767334 -0.55412902945272102 -0.03846642758451823 0.71046397514189696 0.066661526949479688 -0.91372685492875327 0.04422155442115721
decision_type=2 2 2 2 2 2 2 2 2 2 2 2 2 2 2 2
left_child=1 4 -3 -2 9 7 11 13 14 10 -1 -7 -10 -6 -4 -16
right_child=3 2 8 -5 5 6 -8 -9 12 -11 -12 -13 -14 -15 15 -17
leaf_value=0 0.00034180115299000953 -0.00044157852812046276 0 0 0 -0.00025180686166683254 0 6.934802414914838e-05 -0.00011298444390314104 0 0.00013903167321812731 0 0 -5.4011933515491696e-05 7.2404787875711914e-06 0
leaf_weight=56 124 51 51 64 99 107 107 241 108 51 235 54 95 85 87 57
leaf_count=56 124 51 51 64 99 107 107 241 108 51 235 54 95 85 87 57
internal_value=3.9439e-06 -1.63222e-05 -9.31138e-05 0.000243111 2.53438e-06 -1.94527e-05 -0.000106887 4.90677e-07 -1.03221e-05 9.08462e-05 0.00011133 -0.000193795 -6.7519e-05 -8.34019e-06 0 3.60882e-06
internal_weight=1672 1484 449 188 1035 693 268 425 398 342 291 161 203 184 195 144
internal_count=1672 1484 449 188 1035 693 268 425 398 342 291 161 203 184 195 144
is_linear=0
shrinkage=0.03


Tree=24
num_leaves=16
num_cat=0
split_feature=11 21 12 23 17 0 14 0 22 22 4 11 3 11 11
split_gain=0.0137686 0.00802824 0.0076564 0.00867091 0.00455665 0.00563047 0.0018015 0.00139363 0.00138991 0.0013119 0.000407404 0.000371677 3.98433e-05 0.000380699 0.000153147
threshold=0.91724354707752764 -0.71672417652389375 0.0075617757767334481 -0.5400955396062882 1.079673148364009 0.73497606568923268 -0.43219179706637045 0.33277004035708463 -0.52133185993128739 1.0000000180025095e-35 0.04422155442115721 -0.59859389013481068 0.73368243446162229 -0.76309718973952789 -0.11037118671585924
decision_type=2 2 2 2 2 2 2 2 2 2 2 2 2 2 2
left_child=1 6 8 -4 5 -2 7 11 10 -5 -3 -1 13 -10 -15
right_child=4 2 3 9 -6 -7 -8 -9 12 -11 -12 -13 -14 14 -16
leaf_value=0 0.00038561410194575229 0 0 -0.00047299530451150182 0 0 0 0 0 0 -0.00010470125915959388 0.00019698729428432426 0 5.1924869695770451e-05 0
leaf_weight=59 138 78 83 97 103 50 82 65 171 54 157 138 141 191 65
leaf_count=59 138 78 83 97 103 50 82 65 171 54 157 138 141 191 65
internal_value=3.475e-06 -2.67107e-05 -7.63432e-05 -0.000233894 0.000197986 0.000287007 7.92604e-05 0.000120088 -1.16465e-05 -0.000369036 -7.59905e-05 0.000159744 0 9.15864e-06 3.84134e-05
internal_weight=1672 1381 1037 234 291 188 344 262 803 151 235 197 568 427 256
internal_count=1672 1381 1037 234 291 188 344 262 803 151 235 197 568 427 256
is_linear=0
shrinkage=0.03


Tree=25
num_leaves=16
num_cat=0
split_feature=11 20 17 17 0 24 11 15 0 15 15 11 15 0 11
split_gain=0.0169175 0.0108868 0.00683964 0.00672054 0.00539183 0.00359987 0.00321381 0.00325925 0.00211295 0.00286499 0.000790353 0.00136961 0.00121502 0.00068665 8.97758e-05
threshold=0.91724354707752764 -0.69997009100241614 -0.82484038614581323 1.1365809818808119 0.69813711153228808 -0.084929381555979927 -0.57684956288507749 -0.063508834998677585 -0.11196676331020848 -0.62920265727927283 0.96004265445086956 -0.65843167013016646 -0.08051748505773515 0.31481447270485546 -0.75428893560479804
decision_type=2 2 2 2 2 2 2 2 2 2 2 2 2 2 2
left_child=1 6 -3 4 5 -2 -1 13 -4 -10 11 14 -13 -8 -11
right_child=3 2 8 -5 -6 -7 7 -9 9 10 -12 12 -14 -15 -16
leaf_value=0 0.0005679791378369963 -0.00048201166765845729 0 0 0 0 0.00025964046625905318 0 0 -2.170487360376093e-05 0 0 -0.00026621935510908021 0 0
leaf_weight=114 85 51 349 98 50 70 134 52 50 173 74 80 150 50 64
leaf_count=114 85 51 349 98 50 70 134 52 50 173 74 80 150 50 64
internal_value=0 -3.6472e-05 -9.50581e-05 0.000210446 0.000307962 0.000395655 8.65133e-05 0.000152717 -5.78698e-05 -9.24112e-05 -0.000118702 -0.000133574 -0.000203791 0.000213997 -1.9872e-06
internal_weight=1644 1341 991 303 205 155 350 236 940 591 541 467 230 184 237
internal_count=1644 1341 991 303 205 155 350 236 940 591 541 467 230 184 237
is_linear=0
shrinkage=0.03


Tree=26
num_leaves=17
num_cat=0
split_feature=3 17 11 3 17 20 23 23 9 11 22 11 7 22 22 8
split_gain=0.0176032 0.0108344 0.00979019 0.00916288 0.00653999 0.00432988 0.00293939 0.00320958 0.00344559 0.00405286 0.00286449 0.00438966 0.000293374 0.000534592 0.000360597 3.0008e-05
threshold=-1.8083625158315362 -1.1280819559885391 1.1768640708538241 -1.4066826287285792 1.1365809818808119 -0.67224525294146409 -0.27040573774162807 1.215149977201444 -0.33068461009189881 -0.68564580026849886 0.60279757073213347 -0.63998983227880146 0.39351681580401493 -0.62773817001272703 -0.45499876099894709 0.77641901268481794
decision_type=2 2 2 2 2 2 2 2 2 2 2 2 2 2 2 2
left_child=-1 3 5 -2 -4 10 12 8 15 -10 11 -3 13 -7 -14 -8
right_child=1 2 4 -5 -6 6 7 -9 9 -11 -12 -13 14 -15 -16 -17
leaf_value=0.00044838491684546876 0 0 0.00033019790467642103 -0.00047922898705539136 0 0 -1.3531439671277116e-05 0 0 -0.00030710465319849008 0 0.00026685499778004285 -7.533835233300037e-05 6.0131889533695974e-05 0 0
leaf_weight=77 54 67 129 79 93 147 147 53 70 166 71 106 94 147 72 72
leaf_count=77 54 67 129 79 93 147 147 53 70 166 71 106 94 147 72 72
internal_value=0 -1.2919e-05 9.11744e-07 -0.000273846 0.000192365 -2.18502e-05 -5.94284e-05 -0.00010922 -0.00014021 -0.000225776 6.56974e-05 0.000144712 0 1.3314e-05 -3.56688e-05 0
internal_weight=1644 1567 1434 133 222 1212 968 508 455 236 244 173 460 294 166 219
internal_count=1644 1567 1434 133 222 1212 968 508 455 236 244 173 460 294 166 219
is_linear=0
shrinkage=0.03


Tree=27
num_leaves=18
num_cat=0
split_feature=3 11 4 1 22 15 11 9 0 14 1 15 1 9 9 0 0
split_gain=0.0165711 0.0101613 0.00697086 0.00609019 0.00524403 0.00411418 0.00649185 0.00400712 0.00376238 0.00281111 0.00197782 0.000566442 0.000808723 0.000272462 0.000126542 0.000131023 6.10638e-05
threshold=-1.8083625158315362 1.1768640708538241 -1.0360222489501834 1.1444345370231279 0.49505969495074709 -0.40386034742540405 -0.21372906171237924 -0.17167104953753595 -0.11196676331020848 -0.40513208665194883 -0.65064817389044716 0.96004265445086956 -0.48908838370279756 -0.8132035397471632 -0.34890268084186243 -0.30959570022427713 -0.93007779157724846
decision_type=2 2 2 2 2 2 2 2 2 2 2 2 2 2 2 2 2
left_child=-1 2 10 4 7 6 9 -3 14 -4 -2 12 -10 -14 15 -7 -16
right_child=1 3 5 -5 -6 8 -8 -9 11 -11 -12 -13 13 -15 16 -17 -18
leaf_value=0.00043502015468003527 -0.00045588712579243488 0 2.1327013399438569e-05 0 0 4.3500816219068151e-05 0.00026624519510481221 0.0004913691154522997 0 -0.00020844717663788721 0 0 0 -0.00014942983015533019 -2.5353033586789182e-05 0 0
leaf_weight=77 55 69 69 63 51 122 97 79 71 57 51 76 55 359 85 68 140
leaf_count=77 55 69 69 63 51 122 97 79 71 57 51 76 55 359 85 68 140
internal_value=0 -1.25709e-05 -5.53897e-05 0.000143262 0.000233409 -2.09084e-05 6.91518e-05 0.000323994 -5.68716e-05 0 -0.000302644 -0.00010796 -0.00012054 -0.000137021 0 2.44507e-05 0
internal_weight=1644 1567 1305 262 199 1199 223 148 976 126 106 561 485 414 415 190 225
internal_count=1644 1567 1305 262 199 1199 223 148 976 126 106 561 485 414 415 190 225
is_linear=0
shrinkage=0.03


Tree=28
num_leaves=20
num_cat=0
split_feature=12 0 11 11 12 5 5 23 9 21 8 24 11 8 2 1 1 17 8
split_gain=0.0198479 0.0123852 0.00749047 0.0116113 0.00987248 0.00521627 0.00431995 0.00427526 0.00217395 0.00175706 0.00211737 0.00315888 0.00208327 0.000590873 0.000419331 0.000325089 0.000151626 9.14757e-05 5.83335e-05
threshold=0.75350374920186536 0.73497606568923268 1.0527076920093712 -0.1031594010866226 -0.20515327815975967 0.26592486037128693 0.78466909265359241 -0.06527210034593911 -0.37995648033486007 -0.69997009100241681 0.42602119208986972 0.1782116035523397 -0.57684956288507749 -0.46456710946189922 0.28763205228760863 0.4015448692812838 0.14717338594697391 0.13853793507697582 -0.13999381114562701
decision_type=2 2 2 2 2 2 2 2 2 2 2 2 2 2 2 2 2 2 2
left_child=2 15 3 9 -5 7 8 -6 -4 12 11 17 -1 -14 -12 -2 -16 18 -11
right_child=1 -3 6 4 5 -7 -8 -9 -10 10 14 -13 13 -15 16 -17 -18 -19 -20
leaf_value=0 0.00055337154706291177 0 0 0 0 0 0 -0.00071726574197000022 0.00029185195257122723 2.6027324773754263e-05 4.4933217927855034e-05 -0.00019045807232762405 0 0.00023071583064675734 0 0 -3.4878172656431436e-05 -3.1979833310180753e-05 0
leaf_weight=114 91 53 50 79 58 64 50 64 100 77 179 159 60 55 50 50 124 80 87
leaf_count=114 91 53 50 79 58 64 50 64 100 77 179 159 60 55 50 50 124 80 87
internal_value=0 0.000291965 -2.97435e-05 -6.51564e-05 -0.000243605 -0.000363487 0.000116384 -0.000489361 0.000209473 -1.82732e-06 -3.70264e-05 -8.53995e-05 4.88438e-05 0.000144823 0 0.000442659 -9.26799e-06 0 0
internal_weight=1644 194 1450 1250 265 186 200 122 150 985 756 403 229 115 353 141 174 244 164
internal_count=1644 194 1450 1250 265 186 200 122 150 985 756 403 229 115 353 141 174 244 164
is_linear=0
shrinkage=0.03


Tree=29
num_leaves=18
num_cat=0
split_feature=12 0 17 4 15 15 13 14 13 24 12 0 7 12 6 8 1
split_gain=0.0188196 0.0118842 0.00516133 0.00242919 0.00308542 0.00200015 0.00223513 0.00349461 0.0014492 0.00123729 0.00117818 0.00223178 0.00190764 0.000946004 0.000350896 0.000299341 0.000106256
threshold=0.75350374920186536 0.73497606568923268 -1.1280819559885391 -0.057759250386802491 0.84367401783513263 0.27436663852064991 1.1826511878687913 -0.46085677284790089 1.0721441939541567 0.075596989159763997 -0.48157302363957172 -0.54197747019319642 0.035521835085435348 -0.092470540424334322 0.27051671582949677 0.42602119208986972 -0.33860026360738837
decision_type=2 2 2 2 2 2 2 2 2 2 2 2 2 2 2 2 2
left_child=2 -2 -1 5 8 6 7 -4 10 13 15 -12 -13 -9 -6 -5 -7
right_child=1 -3 3 4 14 16 -8 9 -10 -11 11 12 -14 -15 -16 -17 -18
leaf_value=-0.00025874714534729722 0.00043198310817195294 0 0.00027573729879878012 -4.4922499850083641e-05 5.8748891074248575e-05 0 0 0 0 -1.876174430787378e-05 0 0 -0.0003133999336999513 0.00019565107232872583 0 0 -3.6318654403218931e-05
leaf_weight=87 141 53 99 133 91 58 50 83 67 90 50 112 106 50 158 144 72
leaf_count=87 141 53 99 133 91 58 50 83 67 90 50 112 106 50 158 144 72
internal_value=0 0.000284198 -2.90993e-05 -3.35028e-06 -4.30064e-05 3.47898e-05 8.04071e-05 0.000117069 -8.44696e-05 0 -0.000101992 -0.000158377 -0.00020004 9.00147e-05 0 0 0
internal_weight=1644 194 1450 1363 861 502 372 322 612 223 545 268 218 133 249 277 130
internal_count=1644 194 1450 1363 861 502 372 322 612 223 545 268 218 133 249 277 130
is_linear=0
shrinkage=0.03


Tree=30
num_leaves=18
num_cat=0
split_feature=3 17 18 13 8 24 19 15 19 19 6 15 15 0 1 7 1
split_gain=0.00827642 0.00504016 0.00370804 0.00510674 0.00345231 0.00229816 0.000717451 0.00104221 0.000515941 0.00308845 0.00102331 0.000367183 0.000201061 0.000186564 0.000146119 0.000986107 8.85091e-05
threshold=-1.7100812418024305 -1.3843925821165319 1.1012535330425355 -0.54806504241594733 -0.052439504640001779 0.048165240064219343 1.1941682264197713 -0.026318943044425589 0.14228808126257139 -0.38241958545272386 0.22655796834841077 0.50488939491972673 -0.063508834998677585 0.31481447270485546 -0.33860026360738837 0.68747469811462414 0.1355856062519043
decision_type=2 2 2 2 2 2 2 2 2 2 2 2 2 2 2 2 2
left_child=-1 -2 3 4 5 -3 7 -4 9 10 13 12 -10 -5 -13 -16 -6
right_child=1 2 6 8 16 -7 -8 -9 11 -11 -12 14 -14 -15 15 -17 -18
leaf_value=0.00028227802631492421 -0.00026957080248508631 0.00031330842432396105 0 7.0443331330277968e-05 2.8294609716918491e-05 0 0 -0.00018770681959675981 0 -0.00015240761480214053 -7.8792851189778086e-05 0 5.6472830108551441e-05 0 -0.00010730404882312957 0 0
leaf_weight=92 63 107 50 152 99 62 79 117 50 139 53 85 161 75 88 86 88
leaf_count=92 63 107 50 152 99 62 79 117 50 139 53 85 161 75 88 86 88
internal_value=4.75698e-08 -7.09707e-06 0 2.50403e-05 0.000122812 0.000223727 -0.000101835 -0.000138262 0 -3.31398e-05 0 2.77854e-06 3.97449e-05 5.08753e-05 0 -2.74522e-05 0
internal_weight=1646 1554 1491 1245 356 169 246 167 889 419 280 470 211 227 259 174 187
internal_count=1646 1554 1491 1245 356 169 246 167 889 419 280 470 211 227 259 174 187
is_linear=0
shrinkage=0.03


Tree=31
num_leaves=16
num_cat=0
split_feature=12 0 0 13 13 11 20 10 24 5 8 23 24 8 7
split_gain=0.0142817 0.0060829 0.00273762 0.00220871 0.00220309 0.00211712 0.00140865 0.00219841 0.00290862 0.000368733 0.0010319 0.000874158 0.00217736 0.000166956 3.70908e-05
threshold=0.73035082367142323 0.31481447270485546 -0.052655479857602883 -0.73029852376825899 0.51017662157326427 1.3458205657278903 -0.66562609274757423 -0.23225700289352724 0.19034317775557083 -0.28707234494677508 0.86873921037494528 0.29616237479878565 -0.38924889375491251 0.58801335787023257 0.50765830133932111
decision_type=2 2 2 2 2 2 2 2 2 2 2 2 2 2 2
left_child=2 -2 3 -1 5 6 -4 13 -9 -5 11 12 -11 -8 -6
right_child=1 -3 4 9 14 -7 7 8 -10 10 -12 -13 -14 -15 -16
leaf_value=0.00011761038662232523 0.00039731080301895298 0 0 0 1.4843906501842901e-05 0 -3.4435923533657418e-05 -0.00032823319709567532 0 0 0 0 -0.00017009098922431601 0 0
leaf_weight=144 111 74 67 155 151 83 175 119 50 65 84 80 138 97 53
leaf_count=144 111 74 67 155 151 83 175 119 50 65 84 80 138 97 53
internal_value=0 0.000255678 -2.2306e-05 4.04619e-06 -6.32269e-05 -9.34264e-05 -0.0001179 -0.000137409 -0.000245992 0 -3.00503e-05 -6.66818e-05 -0.000100302 -1.45707e-05 0
internal_weight=1646 185 1461 666 795 591 508 441 169 522 367 283 203 272 204
internal_count=1646 185 1461 666 795 591 508 441 169 522 367 283 203 272 204
is_linear=0
shrinkage=0.03


Tree=32
num_leaves=15
num_cat=0
split_feature=12 0 6 0 13 4 23 23 12 23 15 11 23 23
split_gain=0.0134687 0.00567344 0.00325512 0.00168822 0.00218389 0.00164529 0.00149776 0.0017214 0.00136912 0.00558618 0.000515473 0.000840394 0.00106963 0.000401513
threshold=0.73035082367142323 0.31481447270485546 0.42893631342995769 -0.33735046866174406 0.75048593926336826 0.82050036742157817 -0.60366306126171232 0.68029702618907251 -0.036238306037683625 -0.014930310387206361 -0.62920265727927283 0.098858866052473654 0.23441409007093925 -0.77983591113960382
decision_type=2 2 2 2 2 2 2 2 2 2 2 2 2 2
left_child=2 -2 3 4 -1 6 -4 -8 10 -10 -5 12 13 -12
right_child=1 -3 5 8 -6 -7 7 -9 9 -11 11 -13 -14 -15
leaf_value=0.00012478078220534575 0.00038544493119794593 0 0 9.4003626012376378e-05 0 0 -0.00018758622697586907 0 0 -0.00034281222506451906 0 2.0756065521291117e-05 0 -9.1721297433472611e-05
leaf_weight=214 111 74 59 52 74 130 226 50 112 54 50 93 105 242
leaf_count=214 111 74 59 52 74 130 226 50 112 54 50 93 105 242
internal_value=0 0.000248545 -2.12924e-05 0 6.90193e-05 -8.78457e-05 -0.000122966 -0.000152388 -1.431e-05 -9.09507e-05 0 0 -4.24434e-05 -7.57581e-05
internal_weight=1646 185 1461 996 288 465 335 276 708 166 542 490 397 292
internal_count=1646 185 1461 996 288 465 335 276 708 166 542 490 397 292
is_linear=0
shrinkage=0.03


Tree=33
num_leaves=17
num_cat=0
split_feature=11 24 20 17 13 18 11 11 4 17 13 11 19 11 11 2
split_gain=0.00860259 0.0096014 0.00732728 0.00845025 0.00715959 0.00332671 0.00285167 0.00233627 0.00169299 0.00147458 0.000790576 0.000792517 0.0006251 0.00157005 0.00240205 0.000123964
threshold=0.91724354707752764 -0.09065650062858778 -1.1344942245714125 -1.1012312411697378 -0.48491442874670587 0.57754327737138478 -0.57684956288507749 -0.62604739775649043 0.94652765547780116 0.27678869661558997 -0.34989423858908014 -0.70232664267887202 0.54276739222767711 -0.016883594543914433 -0.52266934905624962 0.58760689867366689
decision_type=2 2 2 2 2 2 2 2 2 2 2 2 2 2 2 2
left_child=2 4 6 -4 -2 10 -1 -7 9 -9 11 -5 13 14 -12 -3
right_child=1 15 3 5 -6 7 -8 8 -10 -11 12 -13 -14 -15 -16 -17
leaf_value=0 0.00051476774872475848 1.4917416781870395e-05 -0.00045372375614601668 0 0 0 0.00020008753151482629 0 0 -0.00030872053145179274 0 0.00010961827511281729 0 0 -0.000168071744721955 -3.5525906239446173e-05
leaf_weight=58 83 84 53 74 59 229 139 68 66 92 148 118 99 57 146 73
leaf_count=58 83 84 53 74 59 229 139 68 66 92 148 118 99 57 146 73
internal_value=1.15542e-07 0.000153332 -2.28071e-05 -6.09721e-05 0.000331744 -2.81314e-05 0.000123624 -9.20861e-05 -0.000162285 -0.000216009 0 6.07593e-05 -1.3876e-06 -4.00376e-05 -8.19231e-05 0
internal_weight=1646 299 1347 1150 142 1097 197 455 226 160 642 192 450 351 294 157
internal_count=1646 299 1347 1150 142 1097 197 455 226 160 642 192 450 351 294 157
is_linear=0
shrinkage=0.03


Tree=34
num_leaves=18
num_cat=0
split_feature=10 6 0 4 11 0 11 20 12 13 13 11 11 11 20 18 22
split_gain=0.0121411 0.00476612 0.00310773 0.00200843 0.00192562 0.00167832 0.000826474 0.00199895 0.00355906 0.00195324 0.000651412 0.000632529 0.000205964 0.00028411 0.000134531 0.000912578 0.000206727
threshold=1.3966747094081393 0.42893631342995769 -0.33735046866174406 0.82050036742157817 -0.61605139156975153 0.13660898131030119 1.1768640708538241 -0.71672417652389309 -0.036238306037683625 0.16457125189755664 0.75048593926336826 1.6819858099702498 -0.57684956288507749 -0.11037118671585924 0.65892113690255549 -0.34470225760030698 0.31732567840950127
decision_type=2 2 2 2 2 2 2 2 2 2 2 2 2 2 2 2 2
left_child=1 2 10 4 -3 -2 7 12 14 -10 -1 -6 -4 -14 15 -9 -17
right_child=5 3 6 -5 11 -7 -8 8 9 -11 -12 -13 13 -15 -16 16 -18
leaf_value=0.00012325099443189427 0.00045263970853318656 0 0 0 -0.00021111544848549817 0 3.5588101604545529e-05 0 -0.00034782939011276492 0 0 0 7.9096569890215832e-05 0 0 -7.7578421092912325e-05 0
leaf_weight=228 59 93 65 131 191 52 68 72 61 50 86 50 70 51 82 187 50
leaf_count=228 59 93 65 131 191 52 68 72 61 50 86 50 70 51 82 187 50
internal_value=2.18087e-08 -1.26815e-05 1.01952e-05 -9.75002e-05 -0.000136503 0.000309492 -5.5613e-06 -3.14378e-05 -7.02452e-05 -0.000225756 9.57745e-05 -0.000181617 0 3.90597e-05 0 -1.97789e-05 -6.2992e-05
internal_weight=1646 1535 1070 465 334 111 756 688 502 111 314 241 186 121 391 309 237
internal_count=1646 1535 1070 465 334 111 756 688 502 111 314 241 186 121 391 309 237
is_linear=0
shrinkage=0.03


Tree=35
num_leaves=14
num_cat=0
split_feature=11 1 9 6 12 5 1 1 0 11 15 11 8
split_gain=0.0139937 0.00631971 0.00986793 0.0049803 0.00829735 0.00675151 0.0021704 0.00128661 0.0012213 0.00225511 0.00117889 6.36472e-05 1.65339e-05
threshold=0.91724354707752764 1.1840076436806064 -0.39383361547989543 -0.051269658005635085 0.0075617757767334481 0.48853344151225669 0.24810281910710444 0.85209784575966407 -0.11196676331020848 -0.14577304495505891 -0.56953469249673261 -0.76309718973952789 0.49382740694041738
decision_type=2 2 2 2 2 2 2 2 2 2 2 2 2
left_child=3 2 -2 8 6 -6 12 -8 10 11 -1 -10 -5
right_child=1 -3 -4 4 5 -7 7 -9 9 -11 -12 -13 -14
leaf_value=0.00014680360116695192 0 0 0.00036685733718780985 0 -0.00054415032645724966 0 -0.00013719918476642453 0 0 -0.00014839545279089151 0 1.871768380899768e-05 1.0845848302685438e-05
leaf_weight=81 76 63 168 164 74 64 195 81 107 110 184 163 126
leaf_count=81 76 63 168 164 74 64 195 81 107 110 184 163 126
internal_value=-8.37385e-06 0.000162387 0.000237543 -5.83958e-05 -0.000113554 -0.000339707 -3.16844e-05 -9.5506e-05 0 -3.25744e-05 5.11792e-05 0 0
internal_weight=1656 307 244 1349 704 138 566 276 645 380 265 270 290
internal_count=1656 307 244 1349 704 138 566 276 645 380 265 270 290
is_linear=0
shrinkage=0.03


Tree=36
num_leaves=18
num_cat=0
split_feature=10 6 12 0 5 1 17 11 0 20 17 9 5 8 0 9 11
split_gain=0.0133945 0.00443175 0.0047257 0.00305487 0.00159619 0.00100808 0.00119559 0.000767444 0.000703425 0.00095051 0.00462771 0.000915389 0.000783588 0.000381587 0.000168414 0.000130368 0.000248212
threshold=1.3966747094081393 0.033417309240346943 0.0075617757767334481 0.21950204324017739 0.47937243818860004 -0.21775406614458229 0.16019071743677071 1.4760722350650834 -0.11196676331020848 -0.573475766644856 0.041313010781499238 0.48193877499482879 0.28152780916519693 1.6010282949597963 -0.33735046866174406 0.46044282876641868 -0.52639275210127667
decision_type=2 2 2 2 2 2 2 2 2 2 2 2 2 2 2 2 2
left_child=1 8 5 -2 -4 -3 -7 13 11 15 -11 12 14 -8 -1 16 -10
right_child=3 2 4 -5 -6 6 7 -9 9 10 -12 -13 -14 -15 -16 -17 -18
leaf_value=0.00013105569577983052 0.00042765508722772617 0 -0.0003801898698491806 0 0 0 -0.00010976879011424309 0 0 -0.00021830642418189852 0 0 0 0 0 0 7.2123925965848093e-05
leaf_weight=131 67 121 82 54 87 101 277 51 53 106 181 62 51 53 64 50 65
leaf_count=131 67 121 82 54 87 101 277 51 53 106 181 62 51 53 64 50 65
internal_value=-8.27599e-06 -4.09339e-05 -9.21616e-05 0.000281027 -0.000248753 -2.32497e-05 -5.05614e-05 -7.78061e-05 0 -1.10029e-05 -5.62789e-05 4.32826e-05 7.54107e-05 -9.52776e-05 0.000103815 0 3.14665e-05
internal_weight=1656 1535 772 121 169 603 482 381 763 455 287 308 246 330 195 168 118
internal_count=1656 1535 772 121 169 603 482 381 763 455 287 308 246 330 195 168 118
is_linear=0
shrinkage=0.03


Tree=37
num_leaves=20
num_cat=0
split_feature=11 1 9 14 10 23 24 11 13 13 23 11 7 20 0 23 23 14 11
split_gain=0.0127206 0.00599361 0.00919967 0.00593135 0.00837011 0.00400746 0.00453919 0.00484787 0.00413287 0.00251982 0.00159666 0.000449954 0.00227017 0.000842749 0.000855467 0.000545971 0.000197814 0.000126413 9.52552e-05
threshold=0.91724354707752764 1.1840076436806064 -0.39383361547989543 -0.87179329994544641 -0.3078634947406273 -0.77983591113960382 0.68030057689824697 -0.52266934905624962 0.41046224794010988 1.0161774585960373 0.23441409007093925 -0.75076287207995762 0.27449939591455103 0.79351033608517285 -0.38669795090996278 0.22586104962669487 -0.53518866817542665 1.0000000180025095e-35 -0.67841264328933004
decision_type=2 2 2 2 2 2 2 2 2 2 2 2 2 2 2 2 2 2 2
left_child=3 2 -2 9 11 -6 7 -7 -9 -1 -4 13 17 14 -5 16 -16 -13 -14
right_child=1 -3 10 4 5 6 -8 8 -10 -11 -12 12 18 -15 15 -17 -18 -19 -20
leaf_value=0.0001581370422290196 0 0 0.00043910599477557156 0 0 0 0 -0.00038801853729311626 0 0 0 0.00015397957941500027 0 0 0 0 -0.00016335360859878934 0 -2.8873049120909156e-05
leaf_weight=118 76 63 116 68 71 50 73 213 88 65 52 90 54 72 71 50 97 52 117
leaf_count=118 76 63 116 68 71 50 73 213 88 65 52 90 54 72 71 50 97 52 117
internal_value=-7.65638e-06 0.000154624 0.000228323 -5.57463e-05 -8.70356e-05 -0.000181759 -0.000216929 -0.000261637 -0.000307046 6.15659e-05 0.000353246 0 1.81292e-06 -3.35666e-05 -6.36966e-05 -9.40403e-05 -0.000119933 0.000119413 -8.44275e-06
internal_weight=1656 307 244 1349 1166 495 424 351 301 183 168 671 313 358 286 218 168 142 171
internal_count=1656 307 244 1349 1166 495 424 351 301 183 168 671 313 358 286 218 168 142 171
is_linear=0
shrinkage=0.03


Tree=38
num_leaves=16
num_cat=0
split_feature=12 13 12 11 20 13 1 1 17 11 3 10 0 11 19
split_gain=0.0124218 0.0058753 0.00459933 0.00687479 0.00372649 0.00546708 0.00928333 0.00189671 0.00217185 0.00232564 0.00168735 0.000781078 0.000438991 0.000112694 1.43206e-05
threshold=0.75350374920186536 0.32197420606659816 0.0075617757767334481 1.1944138616646853 -0.81978588788287698 0.41839957538468092 0.18765636257991397 -0.20883778903085137 -0.23100584264248478 1.4760722350650834 -0.43629437822485101 -0.80331639498717411 0.84415718388806493 -0.76645844513312278 -1.1440805998524208
decision_type=2 2 2 2 2 2 2 2 2 2 2 2 2 2 2
left_child=2 -2 7 4 -4 6 -6 10 -9 11 14 -10 -13 -12 -1
right_child=1 -3 3 -5 5 -7 -8 8 9 -11 13 12 -14 -15 -16
leaf_value=0 0.00034006590267147193 0 0 0 -0.00068778643577990274 0 0 8.2525469670766336e-06 0 0 0 -0.00012066621579813896 0 0.00011269364538932663 -1.4027521015990894e-05
leaf_weight=55 116 79 89 69 63 58 83 80 95 70 81 435 51 167 65
leaf_count=55 116 79 89 69 63 58 83 80 95 70 81 435 51 167 65
internal_value=-7.32284e-06 0.000204612 -4.59336e-05 -0.00014115 -0.000213748 -0.000286308 -0.000384723 -8.77924e-07 -4.05145e-05 -6.95329e-05 3.70992e-05 -9.49541e-05 -0.000110553 9.02891e-05 0
internal_weight=1656 195 1461 362 293 204 146 1099 731 651 368 581 486 248 120
internal_count=1656 195 1461 362 293 204 146 1099 731 651 368 581 486 248 120
is_linear=0
shrinkage=0.03


Tree=39
num_leaves=18
num_cat=0
split_feature=10 6 12 0 5 5 15 8 0 13 19 21 0 23 0 24 15
split_gain=0.0117203 0.00404769 0.00441102 0.00278055 0.0013104 0.000856444 0.000823451 0.000951316 0.000655225 0.00134564 0.00105791 0.00432033 0.00112063 0.000465958 0.000327739 0.000167296 6.35988e-05
threshold=1.3966747094081393 0.033417309240346943 0.0075617757767334481 0.21950204324017739 0.47937243818860004 -0.20777583044584416 -0.33580971139384241 0.97038206987476916 -0.11196676331020848 0.75048593926336826 0.49953173830764003 -0.57347576664485667 0.61347152323565202 0.58149051656239337 -0.33735046866174406 1.3388651364444082 0.3987305880613306
decision_type=2 2 2 2 2 2 2 2 2 2 2 2 2 2 2 2 2
left_child=1 8 5 -2 -4 -3 -7 15 9 13 11 -10 -13 14 -1 -8 -12
right_child=3 2 4 -5 -6 6 7 -9 10 -11 16 12 -14 -15 -16 -17 -18
leaf_value=0.00014655383073954614 0.00040245371368817154 0 -0.00036097916012460535 0 0 0 -0.00010543781610480933 0 0 0 0 -0.00026079859392366889 0 0 0 0 2.4354656228742564e-05
leaf_weight=115 67 92 82 54 87 58 247 155 159 85 57 86 57 50 58 51 96
leaf_count=115 67 92 82 54 87 58 247 155 159 85 57 86 57 50 58 51 96
internal_value=-6.63819e-06 -3.77732e-05 -8.69013e-05 0.000263412 -0.000237624 -1.9642e-05 -4.4296e-05 -6.20264e-05 0 4.24267e-05 -8.68967e-06 -5.71069e-05 -0.000184312 8.89004e-05 0.000112241 -9.33451e-05 0
internal_weight=1656 1535 772 121 169 603 511 453 763 308 455 302 143 223 173 298 153
internal_count=1656 1535 772 121 169 603 511 453 763 308 455 302 143 223 173 298 153
is_linear=0
shrinkage=0.03


Tree=40
num_leaves=17
num_cat=0
split_feature=11 21 17 17 11 9 9 12 12 11 1 8 4 4 11 0
split_gain=0.00726766 0.0066776 0.00799607 0.00346671 0.00326713 0.0026571 0.00248089 0.00294178 0.00359705 0.00479294 0.00214117 0.00166593 9.51187e-05 0.000560758 5.71354e-06 5.02104e-06
threshold=0.91724354707752764 -0.65473853640633684 -0.85585273564208197 1.181879697348976 -0.57684956288507749 0.69342226725108713 0.53400566496495994 -0.44394135714832333 0.36878317151325263 -0.62604739775649043 0.98053879633341079 -0.82288614955165185 0.54181901452023207 -0.12011089897302756 -0.8594427417861602 0.39970113200781981
decision_type=2 2 2 2 2 2 2 2 2 2 2 2 2 2 2 2
left_child=1 4 -3 10 14 11 7 12 9 -9 -2 -6 13 -4 -1 -14
right_child=3 2 6 -5 5 -7 -8 8 -10 -11 -12 -13 15 -15 -16 -17
leaf_value=0 0.00025665007684070549 -0.00047983117510531367 0 0 0 0 3.2881655076399767e-05 0 0 -0.0002203283842972809 0 0.00024778233568889009 5.1786694437326194e-06 -5.6872315265474304e-05 -8.3079878178318881e-06 0
leaf_weight=55 148 52 66 89 50 75 70 102 51 295 50 126 168 182 74 50
leaf_count=55 148 52 66 89 50 75 70 102 51 295 50 126 168 182 74 50
internal_value=0 -3.57108e-05 -8.14769e-05 0.000128327 4.95833e-05 0.000124141 -4.49565e-05 -6.73349e-05 -0.000123078 -0.000158858 0.000198921 0.000188437 0 -1.85606e-05 0 0
internal_weight=1703 1416 1036 287 380 251 984 914 448 397 198 176 466 248 129 218
internal_count=1703 1416 1036 287 380 251 984 914 448 397 198 176 466 248 129 218
is_linear=0
shrinkage=0.03


Tree=41
num_leaves=16
num_cat=0
split_feature=12 13 17 1 15 12 12 19 24 12 14 23 23 16 12
split_gain=0.0049652 0.00465449 0.00222685 0.00200254 0.00181373 0.00176221 0.00392532 0.0015493 0.000651754 0.000312987 0.00025489 0.000615418 0.000205472 0.000163783 0.00012346
threshold=0.75350374920186536 1.0161774585960373 -1.3132951341327819 -0.33860026360738837 -0.34321717869875751 0.16521441522105984 -0.44394135714832333 -0.13909074638521365 -0.65894668830605474 0.037105439507551484 0.58361406941339034 0.36497971353307629 -0.53518866817542665 -0.84145193978769262 -0.34511607064661126
decision_type=2 2 2 2 2 2 2 2 2 2 2 2 2 2 2
left_child=2 8 -1 7 9 6 10 13 -2 14 11 12 -6 -4 -5
right_child=1 -3 3 4 5 -7 -8 -9 -10 -11 -12 -13 -14 -15 -16
leaf_value=-0.0002369759073853945 0.00032667083891799615 0 0 0 0 0 -0.00016919033399583142 9.7828581271861711e-05 0 0 0 0 -7.3443050594373886e-05 -3.413582421409467e-05 7.3104432513177085e-05
leaf_weight=51 77 60 105 56 87 93 287 188 50 81 134 56 179 126 73
leaf_count=51 77 60 105 56 87 93 287 188 50 81 134 56 179 126 73
internal_value=0 0.000136523 -2.53427e-05 -7.66154e-06 -3.75893e-05 -6.09843e-05 -7.94822e-05 3.12496e-05 0.000245489 0 0 -2.66706e-05 -5.42137e-05 0 4.66391e-05
internal_weight=1703 187 1516 1465 1046 836 743 419 127 210 456 322 266 231 129
internal_count=1703 187 1516 1465 1046 836 743 419 127 210 456 322 266 231 129
is_linear=0
shrinkage=0.03


Tree=42
num_leaves=18
num_cat=0
split_feature=11 20 17 17 13 11 9 9 12 12 11 13 8 12 4 10 11
split_gain=0.00670248 0.00612269 0.00747119 0.00318787 0.00620566 0.00309406 0.0025123 0.00231398 0.0026814 0.00335418 0.00454114 0.00313739 0.00153856 0.00027479 7.94508e-05 0.00181628 4.94357e-06
threshold=0.91724354707752764 -0.65473853640633617 -0.85585273564208197 1.181879697348976 0.66157437998916879 -0.57684956288507749 0.69342226725108713 0.53400566496495994 -0.44394135714832333 0.36878317151325263 -0.62604739775649043 -0.54806504241594733 -0.82288614955165185 0.16521441522105984 0.54181901452023207 -0.64847332376908084 -0.8594427417861602
decision_type=2 2 2 2 2 2 2 2 2 2 2 2 2 2 2 2 2
left_child=1 5 -3 4 13 16 12 8 14 10 -10 -12 -7 -2 15 -4 -1
right_child=3 2 7 -5 -6 6 -8 -9 9 -11 11 -13 -14 -15 -16 -17 -18
leaf_value=0 0 -0.00046310903340677861 -0.00013228385696017469 0 0 0 0 3.159150297931851e-05 0 0 0 -0.00029058459904993605 0.00023984512796254164 0.00036698587735344728 0 0 -7.7279364680808856e-06
leaf_weight=55 51 52 97 89 50 50 75 70 102 51 105 190 126 97 218 151 74
leaf_count=55 51 52 97 89 50 50 75 70 102 51 105 190 126 97 218 151 74
internal_value=0 -3.36354e-05 -7.77543e-05 0.000124127 0.000191754 4.71688e-05 0.000120159 -4.1929e-05 -6.39763e-05 -0.00011716 -0.000151927 -0.000211849 0.000182713 0.00029455 0 -1.69632e-05 0
internal_weight=1703 1416 1036 287 198 380 251 984 914 448 397 295 176 148 466 248 129
internal_count=1703 1416 1036 287 198 380 251 984 914 448 397 295 176 148 466 248 129
is_linear=0
shrinkage=0.03


Tree=43
num_leaves=17
num_cat=0
split_feature=11 14 12 7 20 1 4 12 10 15 4 14 20 22 22 14
split_gain=0.00627974 0.00585333 0.0076474 0.00565775 0.00337118 0.00316198 0.00286959 0.00176461 0.00153005 0.000528351 0.00136059 0.00104349 0.00170443 0.000257308 0.000173214 0.000263419
threshold=0.91724354707752764 -0.7744720915681057 -0.14871261265771929 -0.7258656572745964 0.22860418644376554 0.90012038996298827 -0.78399385626968854 -0.35051417174965827 -0.02270062590298327 -0.3521752542076822 0.49941102475887972 0.32534396987433489 -0.64572908323738831 -0.0052795415931245447 -0.37849231904319081 0.39188871429177269
decision_type=2 2 2 2 2 2 2 2 2 2 2 2 2 2 2 2
left_child=1 6 9 -4 -5 7 -1 -2 -8 -3 11 12 -11 -9 -12 -16
right_child=5 2 3 4 -6 -7 8 13 -10 10 14 -13 -14 -15 15 -17
leaf_value=0 0 3.8046885025313988e-05 -0.00049393076759777273 0 -0.00020106638397432823 0 0 0.00032143766112552069 0.0002816575911086406 0 0 0 -0.0001401743271333836 0 6.986854501033885e-05 0
leaf_weight=105 68 93 65 198 106 78 55 85 68 86 112 111 205 56 80 132
leaf_count=105 68 93 65 198 106 78 55 85 68 86 112 111 205 56 80 132
internal_value=0 -3.23591e-05 -6.6632e-05 -0.000181405 -6.46194e-05 0.000120413 8.03302e-05 0.000182979 0.000181249 0 -2.16386e-05 -6.23495e-05 -9.26797e-05 0.000246566 0 2.70853e-05
internal_weight=1703 1416 1188 369 304 287 228 209 123 819 726 402 291 141 324 212
internal_count=1703 1416 1188 369 304 287 228 209 123 819 726 402 291 141 324 212
is_linear=0
shrinkage=0.03


Tree=44
num_leaves=18
num_cat=0
split_feature=11 20 17 17 11 22 12 12 11 9 9 4 0 9 4 4 11
split_gain=0.00594884 0.0054783 0.0067757 0.00297299 0.00289867 0.00256085 0.0027044 0.00442121 0.00241898 0.00237934 0.00174093 0.00122346 0.00036002 0.000347526 0.000124608 4.69584e-05 4.37009e-06
threshold=0.91724354707752764 -0.65473853640633617 -0.85585273564208197 1.181879697348976 -0.57684956288507749 0.4339494648293955 0.38135791414813852 -0.36292905545072562 -0.62604739775649043 0.69342226725108713 0.833588882881795 -0.78399385626968854 -0.078511643408478674 -0.18490197141471135 0.12666794597522199 0.56778672986825918 -0.8594427417861602
decision_type=2 2 2 2 2 2 2 2 2 2 2 2 2 2 2 2 2
left_child=1 4 -3 10 16 6 7 12 -9 11 -2 -6 -4 15 -7 -14 -1
right_child=3 2 5 -5 9 14 -8 8 -10 -11 -12 -13 13 -15 -16 -17 -18
leaf_value=0 0.00024011696116557637 -0.00044111857796087859 0 0 0 0 0 0 -0.00022404261123255755 0 0 0.0002291623449678425 -7.158865520229809e-05 0 3.5516802384597821e-05 0 -7.2658835400845976e-06
leaf_weight=55 142 52 160 89 51 66 59 62 245 75 56 125 132 53 109 98 74
leaf_count=55 142 52 160 89 51 66 59 62 245 75 56 125 132 53 109 98 74
internal_value=0 -3.12181e-05 -7.33171e-05 0.000117562 4.40807e-05 -3.84301e-05 -6.79059e-05 -9.06467e-05 -0.000181644 0.000115381 0.000183022 0.000176359 0 -3.38071e-05 1.21672e-05 -5.25609e-05 0
internal_weight=1703 1416 1036 287 380 984 809 750 307 251 198 176 443 283 175 230 129
internal_count=1703 1416 1036 287 380 984 809 750 307 251 198 176 443 283 175 230 129
is_linear=0
shrinkage=0.03


Tree=45
num_leaves=16
num_cat=0
split_feature=10 0 0 11 18 11 24 9 0 10 2 11 20 9 15
split_gain=0.00856438 0.00299533 0.00266011 0.00147371 0.00175708 0.00176864 0.00458858 0.00164566 0.00104836 0.00202697 0.00177266 7.85107e-05 0.000188229 5.29084e-05 6.64703e-06
threshold=1.3966747094081393 -0.061534750136738113 0.26829886507388734 1.0527076920093712 -1.2962085750080734 -0.45985090842485171 0.34784751267652303 0.388231572767401 -1.566720362450633 -0.25452066393857786 0.32912557430749739 -0.74716572367293299 0.69855069416580184 -0.27292464030544222 0.51275482718688481
decision_type=2 2 2 2 2 2 2 2 2 2 2 2 2 2 2
left_child=1 8 -2 4 -3 11 7 -7 -1 -10 -11 12 13 -6 -13
right_child=2 3 -4 -5 5 6 -8 -9 9 10 -12 14 -14 -15 -16
leaf_value=0 0.00038892170480978565 0 0 0 -5.4319423414059334e-05 -0.00026504200724670416 0 0 0 0.00015890724651987419 0 9.2117179604990296e-06 0 0 0
leaf_weight=59 65 61 50 115 97 180 102 63 376 185 69 70 61 56 65
leaf_count=59 65 61 50 115 97 180 102 63 376 185 69 70 61 56 65
internal_value=0 -1.11678e-05 0.000255052 -5.43282e-05 -7.18081e-05 -8.88049e-05 -0.000143037 -0.000214453 2.15757e-05 4.47833e-05 0.000110166 0 -1.81498e-05 -3.95468e-05 0
internal_weight=1674 1559 115 870 755 694 345 243 689 630 254 349 214 153 135
internal_count=1674 1559 115 870 755 694 345 243 689 630 254 349 214 153 135
is_linear=0
shrinkage=0.03


Tree=46
num_leaves=19
num_cat=0
split_feature=3 17 20 10 23 16 22 14 5 8 15 0 5 22 4 24 20 5
split_gain=0.00976264 0.00391445 0.00579795 0.00282442 0.00192566 0.00122224 0.0008813 0.000865046 0.000698715 0.000689682 0.00108461 0.00063995 0.000421066 0.000547543 0.000825904 0.000203521 0.000111816 0.000154773
threshold=-1.9667008865509295 -1.1552214525359663 -1.0940007371294225 0.065975659003905687 -0.43497617365942448 0.17696754960789232 0.2198314653131043 -0.1054013470993881 0.27246543793259165 -0.056679439976685418 0.84367401783513263 -0.078511643408478674 -0.72007722704803512 0.31732567840950127 -0.19127488750854113 0.83096899122731616 1.0000000180025095e-35 0.74557251862181739
decision_type=2 2 2 2 2 2 2 2 2 2 2 2 2 2 2 2 2 2
left_child=-1 2 -2 5 -5 7 9 12 15 -7 11 -11 -3 14 -14 -9 -6 -18
right_child=1 3 -4 4 16 6 -8 8 -10 10 -12 -13 13 -15 -16 -17 17 -19
leaf_value=0.00035886652463684894 0 0 -0.00036177606202868949 0.00017385517261296461 3.1487652386786423e-05 0 0 0.00010430595092537558 0 0 0 -0.00016597670821450231 0 0 -0.0001204972757350097 0 0 -4.9652831881452326e-05
leaf_weight=67 67 104 67 131 101 56 138 140 62 53 123 158 59 62 115 50 65 56
leaf_count=67 67 104 67 131 101 56 138 140 62 53 123 158 59 62 115 50 65 56
internal_value=0 -7.62155e-06 -0.000163974 0 7.9631e-05 -1.63736e-05 -5.14761e-05 0 5.32727e-05 -7.49492e-05 -9.17249e-05 -0.000133872 -1.34886e-05 -4.31777e-05 -7.31486e-05 8.40395e-05 0 0
internal_weight=1674 1607 134 1473 353 1120 528 592 252 390 334 211 340 236 174 190 222 121
internal_count=1674 1607 134 1473 353 1120 528 592 252 390 334 211 340 236 174 190 222 121
is_linear=0
shrinkage=0.03


Tree=47
num_leaves=14
num_cat=0
split_feature=12 0 18 19 23 9 4 1 19 4 9 7 7
split_gain=0.00858525 0.0051949 0.00234493 0.00116244 0.00166063 0.00221171 0.00346201 0.00163811 0.000378894 0.00025757 0.000259567 1.09963e-05 8.10132e-05
threshold=0.82410347052734245 0.15021018060020377 1.0608591053966914 0.14228808126257139 -0.3040356713250662 -0.1253915343196188 -0.78399385626968854 -0.32112396960993123 1.1941682264197713 0.0067712797597618722 -0.33384379124182112 0.68747469811462414 0.2867644142239551
decision_type=2 2 2 2 2 2 2 2 2 2 2 2 2
left_child=2 -2 3 4 9 -6 -7 -5 -4 10 -1 12 -9
right_child=1 -3 8 7 5 6 -8 11 -10 -11 -12 -13 -14
leaf_value=0 0.00035997480706223664 0 -0.00012268336192227159 0.0001098364670687084 0 -0.00031963740162243193 0 0 0 0 6.5195406962517791e-05 7.4943389695998956e-06 -2.3877619505756331e-05
leaf_weight=54 92 94 190 167 171 69 117 197 88 56 109 139 131
leaf_count=54 92 94 190 167 171 69 117 197 88 56 109 139 131
internal_value=0 0.000197991 -1.67139e-05 0 -2.94432e-05 -7.46897e-05 -0.000146173 2.93461e-05 -9.52414e-05 0 3.76539e-05 0 -2.50518e-06
internal_weight=1674 186 1488 1210 576 357 186 634 278 219 163 467 328
internal_count=1674 186 1488 1210 576 357 186 634 278 219 163 467 328
is_linear=0
shrinkage=0.03


Tree=48
num_leaves=17
num_cat=0
split_feature=3 17 20 12 1 19 3 22 8 12 0 10 0 8 10 19
split_gain=0.00885309 0.00370911 0.00549443 0.00370173 0.00259651 0.00233157 0.00209713 0.00109014 0.00104958 0.00102625 0.00134654 0.001287 0.00133454 0.000540535 0.000684384 0.000293737
threshold=-1.9667008865509295 -1.1552214525359663 -1.0940007371294225 0.71196397450162163 -0.33860026360738837 -0.71781557461400347 -0.45218404172724741 0.60279757073213347 -0.27647784664411512 0.38135791414813852 0.91207493117999305 -0.3078634947406273 0.047133700229832654 0.58801335787023257 -0.55160107899204591 -0.70589156546372978
decision_type=2 2 2 2 2 2 2 2 2 2 2 2 2 2 2 2
left_child=-1 2 -2 4 6 -6 15 9 -8 10 11 13 -13 14 -7 -3
right_child=1 3 -4 -5 5 7 8 -9 -10 -11 -12 12 -14 -15 -16 -17
leaf_value=0.00034183585909583296 0 0 -0.00035199897260301642 0.00020388176852512122 2.4994192833009246e-05 -9.4048167843524349e-05 0 0 0.00013188426877337809 0 0 0 -0.00025857810840742001 0 0 -6.9646964879245109e-05
leaf_weight=67 67 66 67 79 97 155 74 114 209 50 55 92 131 191 106 54
leaf_count=67 67 66 67 79 97 155 74 114 209 50 55 92 131 191 106 54
internal_value=0 -7.06723e-06 -0.000159425 0 -4.39336e-06 -3.95625e-05 4.48567e-05 -6.33462e-05 9.75775e-05 -7.65237e-05 -8.67241e-05 -9.96369e-05 -0.000184298 -2.45615e-05 -5.38911e-05 0
internal_weight=1674 1607 134 1473 1394 991 403 894 283 780 730 675 223 452 261 120
internal_count=1674 1607 134 1473 1394 991 403 894 283 780 730 675 223 452 261 120
is_linear=0
shrinkage=0.03


Tree=49
num_leaves=15
num_cat=0
split_feature=12 0 0 13 23 0 1 10 10 4 24 6 15 24
split_gain=0.00785173 0.00484159 0.00202359 0.00143387 0.00192843 0.00121808 0.00165288 0.00134501 0.00117523 0.000980961 0.00108235 0.000611496 0.000539271 2.49952e-05
threshold=0.82410347052734245 0.15021018060020377 -0.061534750136738113 0.40207443938879311 0.1460885248729408 -1.566720362450633 0.24810281910710444 -0.52983539017939807 -0.36155452179630015 -0.16685057598378411 0.12472824480633228 0.57397727042466828 0.52740126089505523 -0.057614762768195125
decision_type=2 2 2 2 2 2 2 2 2 2 2 2 2 2
left_child=2 -2 5 4 9 -1 7 -7 -6 13 12 -9 -11 -4
right_child=1 -3 3 -5 8 6 -8 11 -10 10 -12 -13 -14 -15
leaf_value=-7.4325310582719215e-05 0.00034571203489227828 0 1.8675383586479827e-05 0 0 0 0 0.00013039091303305634 -0.00027989579043966137 -0.00013837259511655643 0 0 0 0
leaf_weight=50 92 94 64 252 56 161 149 240 79 123 143 61 60 50
leaf_count=50 92 94 64 252 56 161 149 240 79 123 143 61 60 50
internal_value=0 0.000189509 -1.5738e-05 -5.11702e-05 -7.75068e-05 5.92179e-06 3.70739e-05 7.09485e-05 -0.000195342 -7.12002e-06 -5.26538e-05 0.000108336 -0.0001012 0
internal_weight=1674 186 1488 827 575 661 611 462 135 440 326 301 183 114
internal_count=1674 186 1488 827 575 661 611 462 135 440 326 301 183 114
is_linear=0
shrinkage=0.03


Tree=50
num_leaves=18
num_cat=0
split_feature=11 1 9 14 17 9 12 9 23 24 2 15 17 2 9 3 3
split_gain=0.011187 0.00740171 0.00861998 0.00558037 0.00772323 0.00155223 0.00138937 0.00262796 0.00107571 0.000871208 0.000825504 0.000353517 0.00058979 0.000804187 0.000671324 4.31918e-05 0.000234516
threshold=0.91724354707752764 1.1444345370231279 -0.37995648033486007 -0.45121403063019194 -0.82484038614581323 0.53400566496495994 -0.3817103776481558 -0.34627762707154547 -0.26525638756051167 0.34784751267652303 -0.58883599455305002 0.85471343177180581 -0.16643610853942856 0.79479859996850422 -0.8681018954998807 -1.1535736105801575 -0.55590190490358116
decision_type=2 2 2 2 2 2 2 2 2 2 2 2 2 2 2 2 2
left_child=3 2 -2 8 -5 6 11 -8 10 -4 -1 12 -6 14 -14 -10 -17
right_child=1 -3 9 4 5 -7 7 -9 15 -11 -12 -13 13 -15 -16 16 -18
leaf_value=0.00013996498136725549 0 0 0.00043687639277179609 -0.00050461365065980447 0 0 0 -0.00018816306973692799 0 0 0 0 0 0 -8.5319613109513951e-05 -5.314268688256931e-05 0
leaf_weight=89 76 69 109 51 61 51 122 239 65 56 64 79 53 58 305 88 52
leaf_count=89 76 69 109 51 61 51 122 239 65 56 64 79 53 58 305 88 52
internal_value=-1.38548e-05 0.000135438 0.000226205 -5.8391e-05 -9.74249e-05 -6.02345e-05 -7.31607e-05 -0.000130054 1.08538e-05 0.000348629 8.11308e-05 -9.18333e-06 -2.76514e-05 -4.63793e-05 -6.72155e-05 0 -1.66335e-05
internal_weight=1687 310 241 1377 1019 968 917 361 358 165 153 556 477 416 358 205 140
internal_count=1687 310 241 1377 1019 968 917 361 358 165 153 556 477 416 358 205 140
is_linear=0
shrinkage=0.03


Tree=51
num_leaves=16
num_cat=0
split_feature=12 1 17 18 23 12 10 8 10 8 10 7 5 7 16
split_gain=0.00800264 0.00604407 0.00471439 0.00240446 0.00021493 0.00148156 0.00138718 0.00106419 0.000527928 0.000403997 0.000847853 0.000131853 0.000273747 2.60855e-05 5.72726e-06
threshold=0.75350374920186536 0.94692470729501299 -1.1280819559885391 1.1012535330425355 -0.25576016886793523 0.0075617757767334481 0.21258102015499933 -0.119107921995689 -0.15924399200193945 0.57639822176043543 -0.32398161191258917 0.43091215379046066 0.49930961758121223 -0.3224154448181496 -0.1671413718035015
decision_type=2 2 2 2 2 2 2 2 2 2 2 2 2 2 2
left_child=2 -2 -1 4 7 9 -7 8 -4 10 -6 13 -13 -9 -12
right_child=1 -3 3 -5 5 6 -8 11 -10 -11 14 12 -14 -15 -16
leaf_value=-0.00027322210104935269 0.00028676124770142026 0 0 -0.00010345169983777757 -5.4985216980693988e-05 -0.00017298563268892831 0 0 0.00013299580560822169 5.1399550947826349e-05 0 -7.465340443469143e-05 0 1.1700088683879457e-05 8.8710319804017018e-06
leaf_weight=88 122 54 93 248 252 89 61 54 86 137 52 65 50 171 65
leaf_count=88 122 54 93 248 252 89 61 54 86 137 52 65 50 171 65
internal_value=-1.31201e-05 0.00016203 -4.34921e-05 -1.8657e-05 0 -1.21139e-05 -9.74676e-05 1.36714e-05 7.66596e-05 0 -9.50798e-07 0 -3.20535e-05 0 0
internal_weight=1687 176 1511 1423 1175 656 150 519 179 506 369 340 115 225 117
internal_count=1687 176 1511 1423 1175 656 150 519 179 506 369 340 115 225 117
is_linear=0
shrinkage=0.03


Tree=52
num_leaves=16
num_cat=0
split_feature=10 1 17 21 18 4 4 22 15 5 23 10 2 9 1
split_gain=0.00540231 0.003602 0.00329005 0.00997094 0.00270142 0.00066542 0.000568812 0.00141013 0.00104693 0.00153081 0.00151831 0.000972114 0.000971306 0.000287363 0.0001705
threshold=1.5207298879189828 0.77451261684673323 -1.1280819559885391 -0.96874795016647497 1.1173455312502278 0.94652765547780116 -0.13554580839921912 0.69244027947581432 0.90724932319522511 -0.51208375948199769 -0.49190455346363021 -0.55160107899204591 0.69421509364788847 0.30760676855019164 0.27392049582071581
decision_type=2 2 2 2 2 2 2 2 2 2 2 2 2 2 2
left_child=2 -2 3 -1 6 -6 7 11 9 -8 -11 -4 -12 -13 -10
right_child=1 -3 4 -5 5 -7 8 -9 14 10 12 13 -14 -15 -16
leaf_value=0 0.000320866380748339 0 0 -0.00052098468651460238 -0.00014525032928696139 0 0 0 4.4418408519898845e-05 0 -0.00012891714684579761 0.00012010521221734388 0 0 0
leaf_weight=79 62 50 68 50 151 75 123 85 112 177 272 199 53 70 61
leaf_count=79 62 50 68 50 151 75 123 85 112 177 272 199 53 70 61
internal_value=-1.26265e-05 0.000168468 -3.50745e-05 -0.000191178 -1.07171e-05 -0.000107087 0 3.35367e-05 -6.78314e-06 -3.8152e-05 -6.74805e-05 7.18911e-05 -0.000105962 9.85839e-05 1.98716e-05
internal_weight=1687 112 1575 129 1446 226 1220 422 798 625 502 337 325 269 173
internal_count=1687 112 1575 129 1446 226 1220 422 798 625 502 337 325 269 173
is_linear=0
shrinkage=0.03


Tree=53
num_leaves=16
num_cat=0
split_feature=11 1 9 21 12 13 23 7 4 15 13 10 24 16 23
split_gain=0.00996003 0.00689615 0.0078792 0.00341508 0.00836942 0.0039716 0.0043295 0.0012027 0.00216518 0.00077592 0.000440101 0.00141548 0.000414698 0.000272398 0.000244911
threshold=0.91724354707752764 1.1444345370231279 -0.37995648033486007 -0.73477929377490248 0.0075617757767334481 0.41046224794010988 -0.4639878769975761 -0.23278633681530139 0.33513132819962571 -0.40386034742540405 0.75048593926336826 -0.2098888765069519 0.34784751267652303 -1.0316183547053901 -0.72933659337460777
decision_type=2 2 2 2 2 2 2 2 2 2 2 2 2 2 2
left_child=3 2 -2 10 7 6 -6 9 14 -5 11 -1 -4 -12 -9
right_child=1 -3 12 4 5 -7 -8 8 -10 -11 13 -13 -14 -15 -16
leaf_value=0 0 0 0.00041416120658029022 0.0001132362790153695 0 0 -0.00046440812022186667 0 0 0 -6.3656922198893599e-05 0.00012764360215912414 0 0 -0.00011471486142228418
leaf_weight=113 76 69 109 54 70 50 101 54 363 91 60 102 56 51 268
leaf_count=113 76 69 109 54 70 50 101 54 363 91 60 102 56 51 268
internal_value=-1.20171e-05 0.000128304 0.000216484 -5.45317e-05 -8.25754e-05 -0.00025515 -0.00032392 -1.84373e-05 -4.46111e-05 1.84672e-06 0 4.2872e-05 0.000333518 0 -0.000101354
internal_weight=1687 310 241 1377 1051 221 171 830 685 145 326 215 165 111 322
internal_count=1687 310 241 1377 1051 221 171 830 685 145 326 215 165 111 322
is_linear=0
shrinkage=0.03


Tree=54
num_leaves=18
num_cat=0
split_feature=11 1 9 14 3 8 24 9 2 11 8 8 11 24 9 24 7
split_gain=0.00937026 0.00663264 0.00753085 0.00504657 0.00609247 0.00152322 0.00120465 0.00154811 0.00104291 0.000660303 0.00208007 0.00128065 0.000588631 0.000408548 0.000288405 0.000178293 3.24548e-05
threshold=0.91724354707752764 1.1444345370231279 -0.37995648033486007 -0.43219179706637045 -0.73457961930950588 0.86873921037494528 -1.242533905862359 -0.8681018954998807 0.79479859996850422 -0.57684956288507749 -1.1539736114422765 0.040615751626393408 0.20624245093885066 1.2898625391291751 0.46044282876641868 0.34784751267652303 0.40938253972583022
decision_type=2 2 2 2 2 2 2 2 2 2 2 2 2 2 2 2 2
left_child=3 2 -2 9 -5 6 -6 -8 12 -1 -11 14 13 -9 -12 -4 -7
right_child=1 -3 15 4 5 16 7 8 -10 10 11 -13 -14 -15 -16 -17 -18
leaf_value=0 0 0 0.00040179310725325696 -0.00044504760950174482 0 2.0958004050290287e-05 0 -0.00014057206525608325 0 0 0.00021549549986010406 0 0 0 0 0 0
leaf_weight=112 76 69 109 55 51 66 52 433 89 60 84 56 56 65 50 56 148
leaf_count=112 76 69 109 55 51 66 52 433 89 60 84 56 56 65 50 56 148
internal_value=-1.17115e-05 0.000123943 0.000210876 -5.31741e-05 -9.09019e-05 -5.47743e-05 -7.54767e-05 -8.75976e-05 -0.000102267 1.12096e-05 5.05389e-05 0.000114829 -0.000117601 -0.000128243 0.000165061 0.000325335 0
internal_weight=1687 310 241 1377 1015 960 746 695 643 362 250 190 554 498 134 165 214
internal_count=1687 310 241 1377 1015 960 746 695 643 362 250 190 554 498 134 165 214
is_linear=0
shrinkage=0.03


Tree=55
num_leaves=19
num_cat=0
split_feature=12 0 2 7 24 11 7 15 11 9 8 23 9 8 19 23 11 24
split_gain=0.00598932 0.00519394 0.00233917 0.00157187 0.00386589 0.00152103 0.00235266 0.0016175 0.00106064 0.00111846 0.000571991 0.000485112 0.00110579 0.000247696 0.000227583 0.000210546 0.000437269 0.000110696
threshold=1.0239180210437442 0.71458839070784308 0.32912557430749739 -0.42868722337166959 0.085845943541342937 1.3458205657278903 0.24087547865611811 0.94680258278918672 -0.75076287207995762 0.48193877499482879 1.0719371745191706 -0.037306267571828387 -0.049369207346347463 -0.37458175235635621 -0.96575675156923457 0.29073496746544697 -0.44839807753918814 0.1640209110594974
decision_type=2 2 2 2 2 2 2 2 2 2 2 2 2 2 2 2 2 2
left_child=2 -2 3 4 11 6 -4 15 -5 10 13 14 -13 -10 -1 16 -8 -7
right_child=1 -3 5 8 -6 17 7 -9 9 -11 -12 12 -14 -15 -16 -17 -18 -19
leaf_value=0.00011053333414851555 0.00031693328560216511 0 0 0 -0.00022130112911327159 4.3561887300061894e-05 0 0 0 0 0 0 -0.00012053482088321533 0.00011994155322678918 0 0 -0.00030534213330055739 0
leaf_weight=52 98 51 159 223 76 52 74 65 71 54 55 52 68 268 53 51 83 60
leaf_count=52 98 51 159 223 76 52 74 65 71 54 55 52 68 268 53 51 83 60
internal_value=0 0.000186849 -1.0617e-05 4.09074e-06 -2.97713e-05 -6.4424e-05 -9.15991e-05 -0.000144948 4.16296e-05 6.87247e-05 8.90012e-05 0 0 0.000103541 6.43304e-05 -0.000185855 -0.000216633 0
internal_weight=1665 149 1516 972 301 544 432 273 671 448 394 225 120 339 105 208 157 112
internal_count=1665 149 1516 972 301 544 432 273 671 448 394 225 120 339 105 208 157 112
is_linear=0
shrinkage=0.03


Tree=56
num_leaves=14
num_cat=0
split_feature=12 0 2 1 10 9 11 7 23 7 14 5 24
split_gain=0.00560173 0.00492793 0.00224484 0.00176056 0.0018707 0.00145604 0.00319892 0.00248775 0.00711339 0.0012308 0.000848528 9.57374e-06 2.05369e-06
threshold=1.0239180210437442 0.71458839070784308 0.32912557430749739 -0.27581395251903607 0.4456867959332636 -0.059444763821554884 -0.70232664267887202 -0.42868722337166959 -0.037306267571828387 0.2675775696976404 0.23300724175721874 -0.081836837194963777 -0.041413773027888713
decision_type=2 2 2 2 2 2 2 2 2 2 2 2 2
left_child=2 -2 5 -4 9 6 12 8 -7 -5 -8 -9 -1
right_child=1 -3 3 4 -6 7 10 11 -10 -11 -12 -13 -14
leaf_value=0 0.00030747355245583249 0 0 0 0 0 0.00014502657291842085 8.2859089210781585e-06 -0.00032505146447362788 -0.00014474755984148941 0 0 -3.6270225468651785e-06
leaf_weight=165 98 51 51 127 54 67 227 125 83 312 87 78 140
leaf_count=165 98 51 51 127 54 67 227 125 83 312 87 78 140
internal_value=0 0.000180617 -1.04151e-05 -6.31524e-05 -8.72418e-05 3.69351e-06 4.29396e-05 -2.26567e-05 -0.000126817 -0.000111252 0.000113076 0 0
internal_weight=1665 149 1516 544 493 972 619 353 150 439 314 203 305
internal_count=1665 149 1516 544 493 972 619 353 150 439 314 203 305
is_linear=0
shrinkage=0.03


Tree=57
num_leaves=17
num_cat=0
split_feature=10 2 25 1 13 4 8 2 13 11 23 8 11 13 4 8
split_gain=0.00489515 0.00331124 0.00243842 0.00229018 0.00156334 0.0034635 0.00148996 0.00301309 0.00351597 0.00452901 0.00194571 0.00121657 0.001251 0.00109198 0.000788587 0.000287874
threshold=1.1577521240544439 0.32912557430749739 -0.35724946949899328 -0.27581395251903607 0.40207443938879311 0.94652765547780116 -1.0780144815806396 -0.33674014933046859 1.2114061715714561 -0.74345016824334864 -0.12596277469950495 0.42602119208986972 0.11443682814423163 -0.29096110201360742 0.087841604640256032 1.0719371745191706
decision_type=2 2 2 2 2 2 2 2 2 2 2 2 2 2 2 2
left_child=1 6 -2 -3 5 -5 10 8 9 -8 -1 12 13 -9 -11 -13
right_child=2 3 -4 4 -6 -7 7 11 -10 14 -12 15 -14 -15 -16 -17
leaf_value=0 0.00034205959386167091 0 0 -0.0001909492859046151 0 0 0 0 0 0.00027844560013026704 -0.00020234455283048866 6.8734924800302902e-05 0 -0.00013373228988136738 0 0
leaf_weight=50 55 52 81 261 116 99 87 107 60 152 50 140 58 156 76 65
leaf_count=50 55 52 81 261 116 99 87 107 60 152 50 140 58 156 76 65
internal_value=0 -8.34282e-06 0.000177471 -7.47041e-05 -0.000102544 -0.000133424 1.17032e-05 3.58964e-05 0.000101565 0.000149355 -5.61182e-05 0 -4.63341e-05 -8.30197e-05 0.000220541 4.43775e-05
internal_weight=1665 1529 136 528 476 360 1001 901 375 315 100 526 321 263 228 205
internal_count=1665 1529 136 528 476 360 1001 901 375 315 100 526 321 263 228 205
is_linear=0
shrinkage=0.03


Tree=58
num_leaves=16
num_cat=0
split_feature=10 0 2 7 4 11 18 5 4 11 15 3 6 5 24
split_gain=0.00465965 0.00479621 0.00306732 0.00248537 0.00140104 0.0026253 0.00149073 0.00380027 0.00131362 0.00197186 0.00100102 0.00104047 0.000598531 0.000585203 0.000101291
threshold=1.1577521240544439 0.44074245332103151 0.32912557430749739 0.2675775696976404 -0.44484923046911456 -0.75076287207995762 -1.525005958362025 -0.11881860998944527 0.93285412799776257 -0.50819403042528244 -0.51342496101704083 0.44548152973796201 0.32540612097461014 0.52352647574395783 0.19034317775557083
decision_type=2 2 2 2 2 2 2 2 2 2 2 2 2 2 2
left_child=2 -2 4 13 6 14 -1 -8 9 -5 -7 12 -12 -4 -6
right_child=1 -3 3 8 5 10 7 -9 -10 -11 11 -13 -14 -15 -16
leaf_value=0 0.00031942706449295986 0 -1.3346021443368136e-05 0 0 0 -0.00022322748305920797 0 0 -0.00022794892503899048 0.00016099129119069285 0 0 8.8752695158947001e-05 -2.8722712159582425e-05
leaf_weight=89 82 54 104 82 174 53 97 67 126 152 232 129 50 64 110
leaf_count=89 82 54 104 82 174 53 97 67 126 152 232 129 50 64 110
internal_value=0 0.000173336 -7.77654e-06 -7.18751e-05 1.10751e-05 4.14693e-05 -1.9519e-05 -9.35044e-05 -0.000117381 -0.000161936 8.86445e-05 0.000105163 0.00013937 0 0
internal_weight=1665 136 1529 528 1001 748 253 164 360 234 464 411 282 168 284
internal_count=1665 136 1529 528 1001 748 253 164 360 234 464 411 282 168 284
is_linear=0
shrinkage=0.03


Tree=59
num_leaves=16
num_cat=0
split_feature=10 0 2 7 22 17 10 5 14 16 22 19 19 7 3
split_gain=0.00435296 0.0045444 0.00292354 0.00236128 0.00127978 0.00126005 0.00240693 0.000550878 0.000210949 0.000576326 0.000661197 0.000384608 0.000331066 0.000434272 0.000110355
threshold=1.1577521240544439 0.44074245332103151 0.32912557430749739 0.2675775696976404 0.39799183744828298 -1.2193950874560404 0.17990307774469574 0.52352647574395783 -0.1054013470993881 -0.50690948324480767 0.31732567840950127 0.48700415179078743 0.0826349776269866 0.33666372879366574 -0.49053336876607906
decision_type=2 2 2 2 2 2 2 2 2 2 2 2 2 2 2
left_child=2 -2 5 7 -5 -1 8 -4 9 14 11 -11 -10 -14 -7
right_child=1 -3 3 4 -6 6 -8 -9 12 10 -12 -13 13 -15 -16
leaf_value=-5.0342447734815444e-05 0.0003099023364272646 0 -1.29475503138926e-05 -0.00014606588108641706 0 0 0.00016382825648547682 8.6110756775840765e-05 0 -0.00011291756483779073 0 0 7.7181635049597942e-05 0 4.3086401909311239e-05
leaf_weight=92 82 54 104 275 85 113 118 64 88 114 50 53 147 173 53
leaf_count=92 82 54 104 275 85 113 118 64 88 114 50 53 147 173 53
internal_value=0 0.000167579 -7.42704e-06 -7.01519e-05 -0.000114498 1.06996e-05 3.33945e-05 0 0 0 -4.88344e-05 -8.15437e-05 2.15583e-05 3.90133e-05 0
internal_weight=1665 136 1529 528 360 1001 909 168 791 383 217 167 408 320 166
internal_count=1665 136 1529 528 360 1001 909 168 791 383 217 167 408 320 166
is_linear=0
shrinkage=0.03


Tree=60
num_leaves=14
num_cat=0
split_feature=12 12 17 13 5 10 21 10 15 4 11 11 11
split_gain=0.00767612 0.00447922 0.00792399 0.00303766 0.00150597 0.001288 0.00127594 0.00233342 0.0006805 0.0014221 9.66591e-05 0.00108443 2.86512e-06
threshold=0.73035082367142323 -0.16802124653217865 -0.98896993821448731 1.0161774585960373 -0.18143909466646799 -0.52983539017939807 0.22860418644376487 0.30099538830544809 -0.4867447534118034 0.22697217150840279 -0.32734600521931517 -0.1031594010866226 -0.21372906171237924
decision_type=2 2 2 2 2 2 2 2 2 2 2 2 2
left_child=1 4 -3 -2 5 -1 10 -8 -6 -10 -4 -12 -11
right_child=3 2 6 -5 8 -7 7 -9 9 12 11 -13 -14
leaf_value=0 0.000255899709895804 -0.00038441963424985602 0 0 0 0.00012069612621399436 -0.0001802959995977397 0 -9.9022709802396006e-05 -2.6433206643308593e-06 0.00010837726181553733 0 2.6439416939995549e-06
leaf_weight=159 128 83 64 56 50 161 101 66 209 260 90 105 108
leaf_count=159 128 83 64 56 50 161 101 66 209 260 90 105 108
internal_value=0 -2.9032e-05 -0.000101596 0.000175473 0 6.10225e-05 -1.09356e-05 -8.46186e-05 -1.60633e-05 -3.66181e-05 0 2.10945e-05 0
internal_weight=1640 1456 509 184 947 320 426 167 627 577 259 195 368
internal_count=1640 1456 509 184 947 320 426 167 627 577 259 195 368
is_linear=0
shrinkage=0.03


Tree=61
num_leaves=14
num_cat=0
split_feature=12 12 17 13 21 10 1 10 4 17 23 11 11
split_gain=0.00721863 0.00428917 0.00738266 0.00286457 0.00118119 0.00221855 0.00102883 0.000561841 0.000529107 0.00136425 0.000369321 8.34288e-05 0.00102824
threshold=0.73035082367142323 -0.16802124653217865 -0.98896993821448731 1.0161774585960373 0.22860418644376487 0.30099538830544809 -0.1728108695881467 -0.55160107899204591 0.74035693245805778 -0.23100584264248478 -0.81825931620359205 -0.32734600521931517 -0.1031594010866226
decision_type=2 2 2 2 2 2 2 2 2 2 2 2 2
left_child=1 6 -3 -2 11 -6 7 -1 9 -8 -11 -4 -13
right_child=3 2 4 -5 5 -7 8 -9 -10 10 -12 12 -14
leaf_value=0 0.00024825258968680635 -0.00037295610392968097 0 0 -0.00017491376329685924 0 0 8.6842174463251903e-05 0 0 -8.2665660320509381e-05 0.00010514390913660905 0
leaf_weight=156 128 83 64 56 101 66 58 178 195 50 310 90 105
leaf_count=156 128 83 64 56 101 66 58 178 195 50 310 90 105
internal_value=0 -2.81663e-05 -9.92192e-05 0.000170147 -1.03408e-05 -8.13571e-05 0 5.01273e-05 -1.18005e-05 -3.66333e-05 -7.04542e-05 0 1.95977e-05
internal_weight=1640 1456 509 184 426 167 947 334 613 418 360 259 195
internal_count=1640 1456 509 184 426 167 947 334 613 418 360 259 195
is_linear=0
shrinkage=0.03


Tree=62
num_leaves=15
num_cat=0
split_feature=12 12 19 13 5 20 11 15 4 11 11 11 11 11
split_gain=0.0067727 0.00412411 0.00690124 0.00270149 0.00136092 0.00111626 0.00166315 0.000629267 0.00132252 0.000561813 0.000148548 0.00124366 9.33055e-06 1.85734e-06
threshold=0.73035082367142323 -0.16802124653217865 -1.4074672393860854 1.0161774585960373 -0.18143909466646799 0.22860418644376554 0.20624245093885066 -0.4867447534118034 0.22697217150840279 -0.53417638894776387 -0.1031594010866226 -0.28958754968544881 0.04082897045213757 -0.21372906171237924
decision_type=2 2 2 2 2 2 2 2 2 2 2 2 2 2
left_child=1 4 -3 -2 9 10 -7 -6 -9 -1 11 -4 -12 -10
right_child=3 2 5 -5 7 6 -8 8 13 -11 12 -13 -14 -15
leaf_value=0 0.00024083399278626341 -0.00034827072767252025 0 0 0 -0.00016973779936587172 0 -9.4819286237898673e-05 -1.7421831459078702e-06 0.00012270464901287684 -1.2769423203669416e-05 0.00012554228381321872 0 2.8494258033951814e-06
leaf_weight=214 128 90 64 56 50 87 80 209 260 106 51 79 58 108
leaf_count=214 128 90 64 56 50 87 80 209 260 106 51 79 58 108
internal_value=0 -2.71503e-05 -9.69135e-05 0.00016498 0 -6.81512e-06 -7.8193e-05 -1.42234e-05 -3.46482e-05 5.85279e-05 0 3.05231e-05 0 0
internal_weight=1640 1456 509 184 947 419 167 627 577 320 252 143 109 368
internal_count=1640 1456 509 184 947 419 167 627 577 320 252 143 109 368
is_linear=0
shrinkage=0.03


Tree=63
num_leaves=16
num_cat=0
split_feature=12 12 17 13 5 10 13 24 20 8 15 22 1 22 20
split_gain=0.00636084 0.00396669 0.00648404 0.00254785 0.00129518 0.00120427 0.00103148 0.00197893 0.00120057 0.000537617 0.00166041 0.000640679 0.00022074 5.1558e-05 0.000235675
threshold=0.73035082367142323 -0.16802124653217865 -0.98896993821448731 1.0161774585960373 -0.32248389672871319 -0.55621633900156187 -0.54304520981926918 0.33780675119608777 -0.2344533996462789 0.42602119208986972 -0.53885901352912458 -0.70693197232968819 0.43460984110756495 -0.46857756929455524 0.7215150934193878
decision_type=2 2 2 2 2 2 2 2 2 2 2 2 2 2 2
left_child=1 4 -3 -2 5 -1 12 8 -8 10 -6 -12 -4 -11 -15
right_child=3 2 6 -5 9 -7 7 -9 -10 13 11 -13 -14 14 -16
leaf_value=0 0.00023363708389346788 -0.00035248580928626998 5.3084440990053904e-05 0 0 0.00012170598044561349 0 0 -0.00019704547626803141 0 0 -0.00010308648127192087 0 0 4.3202969022458077e-05
leaf_weight=107 128 83 70 56 53 147 106 99 98 78 63 246 53 115 138
leaf_count=107 128 83 70 56 53 147 106 99 98 78 63 246 53 115 138
internal_value=0 -2.62481e-05 -9.47441e-05 0.000159967 0 6.57727e-05 -9.00242e-06 -5.63263e-05 -0.000115835 -9.65747e-06 -3.88999e-05 -8.12444e-05 0 0 1.35295e-05
internal_weight=1640 1456 509 184 947 254 426 303 204 693 362 309 123 331 253
internal_count=1640 1456 509 184 947 254 426 303 204 693 362 309 123 331 253
is_linear=0
shrinkage=0.03


Tree=64
num_leaves=15
num_cat=0
split_feature=12 12 17 1 25 5 10 20 10 17 4 9 23 20
split_gain=0.00596711 0.00376699 0.00607734 0.00241258 0.00225223 0.00121807 0.00107906 0.000991684 0.00204534 0.000287304 0.00135722 6.81409e-05 7.0494e-05 1.16012e-05
threshold=0.73035082367142323 -0.16802124653217865 -0.98896993821448731 0.94692470729501299 1.0000000180025095e-35 -0.18143909466646799 -0.52983539017939807 0.22860418644376554 0.30099538830544809 -0.23100584264248478 0.22697217150840279 -0.040780024725984611 -0.3784594632823991 -0.14756225071943177
decision_type=2 2 2 2 2 2 2 2 2 2 2 2 2 2
left_child=1 5 -3 4 -2 6 -1 11 -9 -7 13 -4 -13 -11
right_child=3 2 7 -5 -6 9 -8 8 -10 10 -12 12 -14 -15
leaf_value=0 0.00033600769001150538 -0.00034197455060857901 2.5610571545374424e-05 0 0 0 0.00011045291074284932 -0.00016489967992276943 0 0 0 0 -2.4181452348038622e-05 -0.00010518472122705058
leaf_weight=159 76 83 93 53 55 67 161 101 66 52 365 58 108 143
leaf_count=159 76 83 93 53 55 67 161 101 66 52 365 58 108 143
internal_value=0 -2.52933e-05 -9.21032e-05 0.000155105 0.0002242 0 5.58335e-05 -7.9055e-06 -7.40783e-05 -1.24426e-05 -2.51923e-05 0 0 -8.98199e-05
internal_weight=1640 1456 509 184 131 947 320 426 167 627 560 259 166 195
internal_count=1640 1456 509 184 131 947 320 426 167 627 560 259 166 195
is_linear=0
shrinkage=0.03


Tree=65
num_leaves=18
num_cat=0
split_feature=11 1 9 14 12 5 5 0 4 19 5 1 0 1 12 16 0
split_gain=0.00443959 0.00521107 0.00490753 0.00412695 0.00482739 0.00587595 0.00334936 0.00154177 0.00118972 0.00170523 0.00102927 0.000868008 0.000662491 0.000746326 0.000232847 0.000219827 0.000153088
threshold=0.91724354707752764 1.0697048696305207 -0.39383361547989543 -0.87179329994544641 0.0075617757767334481 0.28152780916519693 -0.60042733654712122 0.37271763968108113 0.33513132819962571 -1.1440805998524208 -1.0382361458378908 0.01511463885294498 0.73497606568923268 -0.70098455771312962 -0.19782511506617359 0.74665534669882805 0.27251656264488133
decision_type=2 2 2 2 2 2 2 2 2 2 2 2 2 2 2 2 2
left_child=3 2 -2 7 8 6 -6 10 9 -5 -1 -10 13 -11 -15 16 -13
right_child=1 -3 -4 4 5 -7 -8 -9 11 12 -12 15 -14 14 -16 -17 -18
